1.000000000000000082e-05,1.000000000000000082e-05,1.000000000000000082e-05,1.000000000000000082e-05,1.000000000000000082e-05,1.000000000000000082e-05,1.000000000000000082e-05,1.000000000000000082e-05,1.000000000000000082e-05,1.000000000000000082e-05,1.000000000000000082e-05,1.000000000000000082e-05,9.988203361602561610e-06,9.952597348151382071e-06,9.975994400618145040e-06,9.998999766692423706e-06,1.000000000000000082e-05,1.000000000000000082e-05,1.000000000000000082e-05,1.000000000000000082e-05,1.000000000000000082e-05,1.000000000000000082e-05,1.000000000000000082e-05,1.000000000000000082e-05,1.000000000000000082e-05,1.000000000000000082e-05,1.000000000000000082e-05,1.000000000000000082e-05,1.000000000000000082e-05,1.000000000000000082e-05,1.000000000000000082e-05,1.000000000000000082e-05,9.998331569960105186e-06,9.994214237645335596e-06,9.934890266893482968e-06,9.813384390710760011e-06,9.508153151339337352e-06,9.254623527930977921e-06,8.688374334461025603e-06,1.003107695406655521e-05,1.160262440980988676e-05,1.008274852982140110e-05,8.220404158501327612e-06,9.609972398703244375e-06,1.141762537480533065e-05,1.009631893000680343e-05,8.995822381723904952e-06,9.202958276140201391e-06,9.353566178323166394e-06,9.653589540899702257e-06,9.888482407519544266e-06,9.985899881071217963e-06,1.000000000000000082e-05,1.000000000000000082e-05,1.000000000000000082e-05,1.000000000000000082e-05,1.000000000000000082e-05,1.000000000000000082e-05,9.994690549148426130e-06,1.013637836550431688e-05,1.000195791207292013e-05,9.905888653253896135e-06,8.972040789453799886e-06,8.226424730411203420e-06,5.829111653685240804e-06,2.915215974279387023e-07,-4.339075385116423469e-06,-7.152051568178946046e-06,-1.268817408110035415e-05,-1.960666030461982804e-05,-3.033643557811715300e-05,-3.700685060319192429e-05,-3.785534262955294677e-05,-3.377408870923032216e-05,-2.776391246686335057e-05,-2.117119369995420629e-05,-1.179900136652184525e-05,-2.563888877244368496e-06,3.449364965362894990e-06,7.484245070096838388e-06,9.276534439013739007e-06,9.915190513633727342e-06,1.000000000000000082e-05,1.000000000000000082e-05,1.000000000000000082e-05,1.000000000000000082e-05,9.986362514032324448e-06,1.021284733549704163e-05,9.462349685874188552e-06,5.720278718638753669e-06,1.886532960834109114e-06,-4.248584628448358260e-06,-1.015271988112130763e-05,-3.101063292847063018e-05,-4.658134874143888459e-05,-5.538882325390307625e-05,-7.424540269799641376e-05,-8.602787714686166291e-05,-1.076033355025733884e-04,-1.160908922721728905e-04,-1.216580722362767676e-04,-1.344112290272628642e-04,-1.444809756552574301e-04,-1.257247479916630110e-04,-9.191447086582410237e-05,-6.142614513109514800e-05,-3.405310870182557699e-05,-9.476880374354895809e-06,2.794210199715344853e-06,8.486897742891544180e-06,9.760220184180497331e-06,1.000000000000000082e-05,1.000000000000000082e-05,9.997524307005241199e-06,9.951677227203661050e-06,1.003204270040891970e-05,7.509674131129606776e-06,-4.031733729620743581e-06,-1.605225882235305048e-05,-3.213406362877815745e-05,-5.745683713288582514e-05,-8.335768839286187388e-05,-1.069792825549890431e-04,-1.010810266454641588e-04,-7.273386628995656786e-05,-1.039800031453687689e-05,2.919848519431141200e-05,7.418774978157756340e-05,2.794372916884549192e-05,-1.127887821868182774e-05,-5.123118265073606611e-05,-6.826170470941989022e-05,-7.139567894668402009e-05,-7.133551187658780895e-05,-5.646239209510950255e-05,-4.175344168858080237e-05,-2.050385914051981132e-05,1.510456939318557816e-06,8.720070322489609899e-06,9.968084423863016714e-06,1.000000000000000082e-05,1.000000000000000082e-05,9.800626582205966962e-06,9.381980766850820904e-06,8.145871680551643319e-07,-2.418308801515324944e-05,-4.794912921884204524e-05,-8.987366267422717647e-05,-1.340823257953509511e-04,-1.582761268212386240e-04,-1.333438771270238589e-04,-7.268267174980827809e-05,2.548199419023256267e-05,1.941204779129207633e-04,3.030733125810319167e-04,3.727818523818626100e-04,3.767188483027812717e-04,3.358189853313083961e-04,2.218214001921911289e-04,1.039617016937216716e-04,4.468525993208111153e-06,-2.936536148168202799e-05,-6.542662732918426611e-05,-9.222339904352261884e-05,-6.471672465151352693e-05,-1.914082431682124279e-05,3.422774746772375199e-06,9.381134277448828775e-06,1.000000000000000082e-05,9.997901304714097999e-06,9.541022780996282534e-06,6.368308247200565154e-06,-9.441861874549332788e-06,-3.776329695654612211e-05,-8.151900376813471982e-05,-1.353889487056044848e-04,-1.813422702099543732e-04,-1.872130893842953328e-04,-1.116575632309623086e-04,-1.519170647610451111e-05,1.002364717213783833e-04,2.318375962256314846e-04,3.097133032325093409e-04,3.973762372965145354e-04,4.889536463252475325e-04,5.192787533761914799e-04,4.269191422629373752e-04,2.689256824493576497e-04,1.502435247452010045e-04,9.847167921735203936e-05,2.556567212978164103e-05,-8.792750915355552587e-05,-1.191897679841238592e-04,-5.680845262110698529e-05,-8.859300137400795663e-06,7.707660333632968997e-06,9.998078545512780651e-06,9.767365157975120839e-06,7.813500524504177325e-06,2.031291937755209717e-06,-2.413008867201660608e-05,-5.863071701299712502e-05,-1.115130516953222726e-04,-1.626603928133097841e-04,-1.928494729748076310e-04,-1.278598544569780964e-04,-5.853051296793248490e-05,3.238505466070668850e-05,1.100908400508665672e-04,1.764044570677115195e-04,2.490410138073747615e-04,3.462557464765158113e-04,4.715007211063990079e-04,5.771307593921500998e-04,5.392566510750452244e-04,3.729508441668178678e-04,2.137921089462023493e-04,1.450010297868124646e-04,1.087148833940043940e-04,-2.053515192838334215e-05,-1.293248218595725277e-04,-8.617250888541931890e-05,-1.466402720970256855e-05,9.246472510556493789e-06,1.077647570239808793e-05,9.496811252695271766e-06,5.365005872709946174e-06,-7.180491287782774865e-06,-4.628937943126550396e-05,-8.870686579502322724e-05,-1.300505548859856738e-04,-1.608207025316750005e-04,-1.473731169506095021e-04,-9.135995447293333827e-05,-1.791184701332654088e-05,4.253725391009991180e-05,1.293834893440263232e-04,1.830581842919591835e-04,2.478250941123843012e-04,3.144838369682511660e-04,4.336213584382710628e-04,5.001230963955200339e-04,5.184442942380216007e-04,4.104932854033110120e-04,2.893718036121888017e-04,1.982135004626362385e-04,1.997161960031714671e-04,1.016193961932648993e-04,-9.062965114405896244e-05,-9.623338521224969705e-05,-1.430644271077540114e-05,8.516791039272572373e-06,9.961768728265196828e-06,9.144508567969281528e-06,3.450706355599184886e-06,-1.366093844404507830e-05,-5.648409788181843076e-05,-9.642600781343977018e-05,-1.172590595140491894e-04,-1.127893623278932952e-04,-9.378294062775686848e-05,-4.035662066155007959e-05,2.692805795835900889e-05,7.717211945268572480e-05,2.001231563902945623e-04,2.757051477385008532e-04,2.225006845116653004e-04,1.535319650058129880e-04,1.791187807674035582e-04,2.815018556823381643e-04,4.208590522305630179e-04,4.328633931502689786e-04,3.425811615440875198e-04,2.942069298078134614e-04,3.303358531879449500e-04,2.581978926500489249e-04,1.212512547059784986e-05,-7.591311357726054183e-05,-1.035792187481018014e-05,8.821615693340397577e-06,9.938820184835706403e-06,8.577110095486659703e-06,4.121483299626420603e-06,-1.858449179099720826e-05,-6.031375409342727256e-05,-8.514872337203624009e-05,-7.824266603639092998e-05,-4.093618090533562918e-05,-3.365850005128136316e-05,1.119110002336703724e-06,4.187391425257381091e-05,1.860306216990422693e-04,2.469757166713787899e-04,1.811576596754146766e-04,4.927059787906349543e-06,-1.832609570692588364e-04,-2.292628213858900917e-04,-3.681200026003041332e-05,2.285554372519939671e-04,3.622007554131529512e-04,4.089114565766722238e-04,4.289173187129743199e-04,5.171866271854247887e-04,4.360751851018699905e-04,1.252372256566044529e-04,-4.304783167879941327e-05,-6.351583232669167510e-06,9.510955108771438932e-06,9.935155906200271735e-06,9.214890558050579212e-06,2.022285677248067707e-06,-1.942360563330739699e-05,-7.132069311926421482e-05,-6.710212305158375632e-05,9.387955021935862082e-06,5.763568811063266218e-05,2.859087976073217569e-05,2.398204781551101626e-05,1.290062714278856788e-04,2.283056905098082578e-04,1.382834580306570803e-04,-7.129422396492977128e-05,-3.961859055481299868e-04,-6.397789790469338286e-04,-6.879279470909007831e-04,-4.382414452186423563e-04,-7.107158939049223339e-05,2.434261456581132124e-04,3.917406770702961641e-04,5.221289860327873881e-04,6.468926820155802273e-04,5.583662391868968785e-04,2.103354569814228070e-04,-9.780265160225517460e-06,2.611401107972936761e-06,9.765888980914266406e-06,9.980242332711607202e-06,9.342075066866413764e-06,3.986341367293542744e-06,-1.817670212080353106e-05,-6.958835164206030358e-05,-4.191683247861454461e-06,1.269466640464202145e-04,1.470561106159297285e-04,7.868594026099975285e-05,1.232582765611129911e-04,2.662796454903050493e-04,2.219316495068005023e-04,5.531416157152150991e-06,-3.912391117672081586e-04,-7.884789471246039056e-04,-9.909060864305518999e-04,-1.013447094682556719e-03,-7.413119262123797192e-04,-3.062873468091284294e-04,6.066236680412116458e-05,2.819046454541213336e-04,5.046029111243605743e-04,7.057286287524957907e-04,6.294953397806296201e-04,2.718612949803418883e-04,1.211211840295368126e-05,6.872896185485270164e-06,9.871569670360103298e-06,9.998212403178045096e-06,1.019248847193858242e-05,6.564147058591378705e-06,-1.612086814273282320e-05,-4.962426324401757877e-05,8.581303683125987070e-05,2.337096880727283462e-04,2.596313315011221476e-04,2.012499793762202022e-04,2.914266042580514844e-04,3.609102257178900021e-04,1.485466358478695523e-04,-2.459043586490550302e-04,-7.378140065457246223e-04,-1.040594915298524627e-03,-1.178496576671873462e-03,-1.158276581619308021e-03,-8.674564538730244068e-04,-4.275536902359434381e-04,-7.641413694547398059e-05,1.714811589724925256e-04,4.648475308112412648e-04,6.787492513728665081e-04,6.190062062687469446e-04,2.853226959935627671e-04,1.986985848081454528e-05,8.315843021415395290e-06,9.636100110389620468e-06,9.937142585688696982e-06,9.795008024478005804e-06,7.677309161922702473e-06,-1.742690900763137934e-05,-2.929184367762967541e-05,1.921757359552289104e-04,3.437873122784107787e-04,3.913763561422701088e-04,3.700976966738685008e-04,4.469997471921878496e-04,3.877077300528814765e-04,8.025355458182995810e-06,-5.126284229445226106e-04,-9.581402769503741040e-04,-1.191918234255749708e-03,-1.256467100171855446e-03,-1.175250798223775135e-03,-7.960118915019768473e-04,-3.783144590551127534e-04,-6.294398538138890856e-05,1.764784277880370768e-04,4.204647843416158578e-04,5.759588602057826934e-04,5.525297167159367705e-04,2.747802497688170333e-04,1.820851767016590174e-05,8.346473563146112728e-06,9.957707476053812834e-06,9.976583349076247327e-06,9.828398199453922972e-06,8.261445178574906237e-06,-2.192359893759343329e-05,5.495625246828115152e-06,2.826332975723669372e-04,4.177799060861721423e-04,4.880480495072590645e-04,5.102822190947823872e-04,5.565253654610595154e-04,3.661307518837929038e-04,-1.833667184614089023e-04,-7.237338618763229734e-04,-1.115581013525468327e-03,-1.276316781444100830e-03,-1.262101339132114383e-03,-1.054766288442621517e-03,-6.362724020311293169e-04,-2.156702182168079591e-04,4.373959845210528401e-05,2.109912772265127960e-04,3.447170577180960088e-04,4.692852993726222906e-04,4.527122516627315324e-04,2.163408049045392116e-04,1.020245622691814345e-05,7.297740023543554220e-06,9.686177136145998593e-06,9.983799887490953993e-06,9.889409685544498196e-06,7.042119647013454801e-06,-2.890718158837443991e-05,2.148605743041623448e-05,3.343419077876114013e-04,4.876361057969574083e-04,5.319506226021343456e-04,5.933097383690341892e-04,5.733011744546376038e-04,3.011678580206773740e-04,-2.710864902653469552e-04,-8.049952444597058146e-04,-1.115455324967952510e-03,-1.209000170331701873e-03,-1.111480737149049677e-03,-8.099943295295947707e-04,-3.680155436619323328e-04,-2.274415688583723537e-05,1.481568729252710304e-04,2.250013747292943435e-04,2.991518444724819556e-04,3.654163808196713966e-04,3.162641524122232701e-04,1.330362978136679373e-04,-1.503289484915293047e-06,5.319051140213550380e-06,9.650890327616791140e-06,1.000000000000000082e-05,9.921934799580227262e-06,5.401971860701050314e-06,-3.845960618780005553e-05,2.407409813401068684e-05,3.360135700179940925e-04,4.996468665524640826e-04,5.491483351906683609e-04,5.957190483248933285e-04,5.798445010445300168e-04,3.067908792571621772e-04,-2.406401766744070377e-04,-6.897856265175679111e-04,-9.616136951156791521e-04,-1.020610921625282521e-03,-8.261524079419699457e-04,-4.612619494531789203e-04,-8.870762877315144115e-05,1.046413996078402565e-04,1.706771222103068352e-04,1.861354105062657590e-04,2.252910981516141099e-04,2.748063302731938826e-04,1.748474290917731823e-04,6.197330935114982382e-05,-3.933130585307068045e-06,6.538410658229631756e-06,1.130900555588007272e-05,9.981568115902242477e-06,9.967214787377041900e-06,4.972320844988609882e-06,-5.658802344172284769e-05,-5.317414474213959566e-07,2.774609844277487261e-04,4.357838323675237275e-04,5.270013557330240159e-04,6.008985886257609725e-04,5.893554433699531216e-04,3.653644914864324108e-04,-9.866380578747657932e-05,-4.964135815880003260e-04,-6.944434248712542728e-04,-6.797067427681103375e-04,-4.512961244210654207e-04,-1.679806013269714805e-04,4.998390403342337654e-05,1.230537150729560370e-04,1.278347141807814450e-04,1.137821884360693903e-04,1.558382150958597919e-04,1.560603940791855911e-04,6.657843502473621670e-05,7.708612459373703066e-06,-3.683494916922141638e-06,7.732861723906496636e-06,9.341653399914144959e-06,9.999384935460965088e-06,1.064261843137731000e-05,2.614537961336779109e-06,-5.819552935775022139e-05,-1.899738258992416276e-05,1.978180810639215215e-04,3.529514779482797516e-04,4.502054342638538435e-04,5.305900822488996945e-04,5.914452737504854009e-04,4.626301948215561931e-04,1.392099499158220557e-04,-1.549131125553764358e-04,-3.167049633561736508e-04,-2.821783373146300659e-04,-1.486078661259348707e-04,1.081724955708302664e-05,1.016754602217777927e-04,8.166984592492062699e-05,4.107108072114835988e-05,4.822801280211553465e-05,8.212872283735867776e-05,5.238043035665321018e-05,-7.289698289606707566e-06,-1.755447390458763208e-05,-2.243124145691587564e-06,7.876530873788444915e-06,9.760676832128662841e-06,1.000000000000000082e-05,1.166470306008703177e-05,3.796021013069562206e-06,-4.874790911198917962e-05,-2.275681536904009824e-05,1.393866203255341276e-04,2.576696321413455377e-04,3.357721536767678950e-04,4.243928057083685111e-04,5.429437122094237563e-04,5.566735916022802272e-04,3.694258271990734474e-04,1.424678037567270715e-04,-1.233485525960864893e-06,-2.741254356864888418e-05,4.613593942463702357e-05,6.458626732490663094e-05,5.588285656413627520e-05,-2.161880900665168033e-05,-4.293381243275242430e-05,-1.283444432578127953e-05,6.136785827820401165e-06,-3.222383165620157369e-05,-4.630420272387130917e-05,-2.256266962811760579e-05,1.322544544247571904e-06,9.093363355478662759e-06,9.985060245484191150e-06,9.998786983804712418e-06,9.851883545717857445e-06,4.261169439654297968e-06,-3.132643106588435403e-05,-2.836277731903968872e-05,8.110800196438168398e-05,1.846587583514954032e-04,2.640300031550370545e-04,3.311408821332505106e-04,4.711999153493423836e-04,5.761674477050273899e-04,5.320993769544352927e-04,3.437011734373397070e-04,1.969416779427798328e-04,1.555136659545558778e-04,1.402463415716227236e-04,8.545150194290284274e-05,-1.404212771986860524e-05,-6.225152776634352387e-05,-8.683266986267823681e-05,-6.933542061717107015e-05,-7.227049263197939664e-05,-6.891817528210091991e-05,-3.909550139834425505e-05,-9.369688952765103682e-06,5.982327672932010568e-06,1.151667951145049458e-05,1.004914322052556757e-05,9.998824890560825768e-06,9.992288879808027953e-06,6.846823308354474485e-06,-1.331826056403160589e-05,-4.317656081291281335e-05,2.332594950214827729e-05,1.299236405342617490e-04,2.117843408870793509e-04,3.118940827441566929e-04,4.221719834847876890e-04,5.304496596324637797e-04,6.103556498073447936e-04,5.621601038207306835e-04,5.004691179208537680e-04,3.715604773649968696e-04,2.424789339675199320e-04,1.006526440096980660e-04,-1.586593015164545922e-05,-1.021579153400780439e-04,-1.229201498947043102e-04,-1.286134722730587646e-04,-1.014181705359008817e-04,-5.447165196747213669e-05,-1.869533561523756276e-05,1.260312107438049449e-06,8.627200105564687243e-06,1.035108798123643337e-05,1.009072594558566589e-05,1.000000000000000082e-05,1.000000000000000082e-05,9.181578264928375461e-06,1.836275214243831118e-06,-2.354851753876382363e-05,-1.770342878791520143e-05,1.733576363617532980e-05,8.403178769955344733e-05,1.571266334430162202e-04,2.687543680537533906e-04,3.828363263643024504e-04,4.849902004356459757e-04,5.126616877026671411e-04,4.350224014401700835e-04,3.015410980128599861e-04,1.352858666625608253e-04,-1.994311673914901295e-05,-1.096124288489466498e-04,-1.640322443849753819e-04,-1.638476156031591657e-04,-1.290036648739930313e-04,-7.493547658751681980e-05,-3.256186127793649142e-05,-6.676527821172113244e-06,6.173529635880574061e-06,9.426189309693901809e-06,9.851435526054163250e-06,1.000000000000000082e-05,1.000000000000000082e-05,1.000000000000000082e-05,9.422624049216372550e-06,8.158567165261606461e-06,6.382904593763811059e-07,-1.270139081680709597e-05,-3.128142256530851021e-05,-6.161470229648298208e-05,-7.327058477572199460e-05,-8.230418463558613403e-05,-7.179262361205891697e-05,-6.547504646393897119e-05,-3.698725116923581749e-05,-5.351927959046632558e-05,-9.151222058154203276e-05,-1.334229119625453947e-04,-1.711663896715413932e-04,-1.722867342461423311e-04,-1.514426325535183585e-04,-1.140624895490523850e-04,-7.617703722318261113e-05,-4.482622989340169294e-05,-1.679665128760952962e-05,-4.376457247317725864e-08,7.971236758705702694e-06,9.892096461648952060e-06,9.990587117180037136e-06,1.000000000000000082e-05,1.000000000000000082e-05,1.000000000000000082e-05,9.964219650666117885e-06,9.697581855248346724e-06,7.282576808685166747e-06,-1.024430578814580416e-06,-1.775081036802821284e-05,-4.464152149444214069e-05,-7.886648384304508364e-05,-1.182647750263659652e-04,-1.552215504423476368e-04,-1.704288968316145891e-04,-1.872642091687676757e-04,-1.837947719019046545e-04,-1.756997955119415846e-04,-1.570984640563424719e-04,-1.382036476046304759e-04,-1.162548031633875922e-04,-8.390815136369964727e-05,-5.108385698838332562e-05,-3.175908369223007222e-05,-1.667922564417726342e-05,-2.598862993063447979e-06,5.252617772010740376e-06,8.852082785044636986e-06,9.985557969818232186e-06,9.991359447171713616e-06,1.000000000000000082e-05,1.000000000000000082e-05,1.000000000000000082e-05,1.000000000000000082e-05,9.991703834961326194e-06,9.487355240578775335e-06,5.835718080258657846e-06,7.079511765546642400e-07,-6.736190093488783264e-06,-1.862655528056870902e-05,-3.336584823004676531e-05,-3.919414837224525355e-05,-4.385086031400124723e-05,-4.512460024947804874e-05,-5.231024297175703857e-05,-5.529617548648296408e-05,-4.972383794438560271e-05,-4.170557515713443821e-05,-3.314242565286156547e-05,-2.356203599981736364e-05,-9.796604801196001188e-06,-3.671839689384311996e-06,-2.479643398709780608e-07,4.522481777934987759e-06,8.854510868595291077e-06,9.986076007366515269e-06,9.991596471600206473e-06,1.000000000000000082e-05,1.000000000000000082e-05,1.000000000000000082e-05,1.000000000000000082e-05,1.000000000000000082e-05,1.000000000000000082e-05,9.980803914578526700e-06,9.796149860127426078e-06,9.505720994863958386e-06,9.064501769899959116e-06,8.477342338430156554e-06,7.618314433806857880e-06,7.121079020967298089e-06,6.129334288006103499e-06,3.503291274258300038e-06,8.578747980198436848e-07,-3.136790896473515333e-06,-2.042592491357351883e-06,-1.648318016826902874e-07,2.062901037616408778e-06,3.351106630501444034e-06,6.370617339505307611e-06,7.571885544795131378e-06,8.040211910098793598e-06,6.279307892508262544e-06,9.234169610729703759e-06,1.000000000000000082e-05,1.000000000000000082e-05,1.000000000000000082e-05,1.000000000000000082e-05,8.143768127508193471e-06
1.000000000000000082e-05,1.000000000000000082e-05,1.000000000000000082e-05,1.000000000000000082e-05,1.000000000000000082e-05,1.000000000000000082e-05,1.000000000000000082e-05,1.000000000000000082e-05,1.000000000000000082e-05,1.000000000000000082e-05,1.000000000000000082e-05,1.000000000000000082e-05,9.985960658469440049e-06,9.953745856656074021e-06,9.982737192134778578e-06,9.999280716338956385e-06,1.000000000000000082e-05,1.000000000000000082e-05,1.000000000000000082e-05,1.000000000000000082e-05,1.000000000000000082e-05,1.000000000000000082e-05,1.000000000000000082e-05,1.000000000000000082e-05,1.000000000000000082e-05,1.000000000000000082e-05,1.000000000000000082e-05,1.000000000000000082e-05,1.000000000000000082e-05,1.000000000000000082e-05,1.000000000000000082e-05,1.000000000000000082e-05,9.999105995087835991e-06,9.997168845144618313e-06,9.984518116203397958e-06,9.931377660537759372e-06,9.133442874327722945e-06,9.114770070418864165e-06,9.003055665040622684e-06,8.967946959794745521e-06,9.161715500691334520e-06,9.192743211764332285e-06,1.200132542364501409e-05,1.351924140616482557e-05,8.339882499054521517e-06,8.696755595797125201e-06,9.453194147487463671e-06,9.525628487155958680e-06,9.555208068050121960e-06,9.708551647027732849e-06,9.935292969035801322e-06,9.990088226154266438e-06,1.000000000000000082e-05,1.000000000000000082e-05,1.000000000000000082e-05,1.000000000000000082e-05,1.000000000000000082e-05,1.000000000000000082e-05,9.998077976339147526e-06,9.998681307222610144e-06,9.970458886766836524e-06,9.978232334533253196e-06,9.799549286774317925e-06,8.920974402524510657e-06,6.147031487752704977e-06,3.093714190751425095e-06,8.780378603123843073e-08,-1.249667231087076582e-06,1.007368881956891391e-06,9.126940244887980742e-06,1.329012293497726469e-05,2.176006312557848645e-05,9.597780206119013442e-06,-3.351075062529700043e-06,-6.851684264098504495e-06,-4.079503375192902154e-06,-1.826817222681099223e-06,2.065867207326466551e-06,5.570505369433835624e-06,7.994594856282399568e-06,9.134258574210035178e-06,9.807109433844206719e-06,1.000000000000000082e-05,1.000000000000000082e-05,1.000000000000000082e-05,1.000000000000000082e-05,1.006752764961009622e-05,1.000323069951605554e-05,9.942784732442395149e-06,9.414794367148679322e-06,7.882574573559610647e-06,1.937438734111235308e-06,-1.174420973381399504e-05,-2.803222180645796827e-05,-4.853575117405500768e-05,-6.659862567319591270e-05,-6.347832192945102416e-05,-4.480971709498574490e-05,-3.635211408824545650e-05,-2.503237388366398876e-05,-4.156425586904571542e-05,-7.382202884278907728e-05,-8.274103108365608850e-05,-6.888531964662420782e-05,-4.782877157153895658e-05,-2.450383008545591686e-05,-8.957774473856288544e-06,-1.351077645488383718e-06,3.177889031849636107e-06,8.607332796911965341e-06,9.147407210862588259e-06,1.000000000000000082e-05,1.000000000000000082e-05,9.997366677004554836e-06,1.022512490105309389e-05,9.928690140304744383e-06,9.736224905860439870e-06,7.747320394997673097e-06,-1.973278192415005809e-06,-2.585251390704495963e-05,-5.614607029786263139e-05,-9.117411050092273444e-05,-9.183410379850836473e-05,-4.618353254572965012e-05,8.231288223033743020e-05,1.902070574213768610e-04,1.979523793846631348e-04,1.432616697042554536e-04,5.758226334335357844e-05,4.919201329343954315e-05,9.900581744143815239e-05,2.051823620515446300e-04,2.466835022234353477e-04,2.083442537848914677e-04,1.159849475333681664e-04,4.271223643098567038e-05,3.502130471217908962e-07,1.206647802747486025e-06,8.882339841096697770e-06,9.648600393659547588e-06,1.000000000000000082e-05,1.000000000000000082e-05,1.024466151335837369e-05,1.101715341506216486e-05,9.371419500686763913e-06,2.226461289608400377e-07,-2.738910917536572679e-05,-7.764571457945549596e-05,-1.502242221591110303e-04,-2.029619161696541224e-04,-1.932790954672112887e-04,-1.007353136305750327e-04,8.539449664819022759e-05,2.404358348125369400e-04,2.272044611800855772e-04,1.070316914136694675e-04,-4.554712623123842333e-05,-6.022536065532516444e-05,1.028016311057764918e-04,2.888642550678659215e-04,3.907973394311822909e-04,3.380461481491612826e-04,1.903116213412623780e-04,6.808161972990132223e-05,3.280290275342790150e-06,-1.208617688653678576e-05,6.114137383122472723e-06,9.563479861863957197e-06,1.000000000000000082e-05,9.996906898335893653e-06,9.115705873337648770e-06,1.056373960174311232e-05,4.644506741072003683e-06,-2.283509442873521425e-05,-7.099286133506166579e-05,-1.522433963729662545e-04,-2.583815679179107426e-04,-3.560471485450932331e-04,-3.801265245243486504e-04,-2.950087570845706317e-04,-1.296102813803176471e-04,6.144761753318515391e-06,-3.906911054191934929e-05,-2.206699271086158412e-04,-3.533766843264990313e-04,-2.959856700455165950e-04,-2.913565517873423804e-05,1.870534870441492733e-04,2.706463027238215796e-04,1.811063257537462673e-04,5.764220132235608552e-05,-1.954784690764687426e-05,-4.711780995964963273e-05,-2.875827941246182086e-05,2.746453786828420829e-06,8.582356448941738612e-06,9.998582688031200629e-06,9.786265713682394560e-06,9.247439540920590598e-06,6.293673388375200877e-06,-3.808905350021324265e-06,-4.825744543543173309e-05,-1.267211064128030977e-04,-2.161289474730772374e-04,-3.514735448030677179e-04,-4.669220993124239389e-04,-5.435925556277486402e-04,-5.114157620220843034e-04,-3.220685228710650828e-04,-1.498208568414394063e-04,-1.503423991360799592e-04,-2.882184719930845065e-04,-3.777862420151409102e-04,-2.837997869833761423e-04,-9.487441548606494592e-05,6.456043356861534152e-05,4.904318242859523141e-05,-4.548037330571252582e-05,-1.139820829228409239e-04,-1.463649955333418899e-04,-1.235557196397185490e-04,-5.267304959622703644e-05,3.297992012468342568e-07,8.358258520581519002e-06,9.987769877307730673e-06,9.796966601446619976e-06,8.790024046009077544e-06,4.546437874423389587e-06,-1.104579284071882990e-05,-6.436523040197595182e-05,-1.479376150724561595e-04,-2.464979859521117104e-04,-3.748350859737112893e-04,-5.092916105140460423e-04,-6.119743210483649144e-04,-5.875548291155361074e-04,-3.806901279766380648e-04,-9.202457045278105308e-05,8.851400988176952908e-05,7.416141720749813303e-05,-7.383525485126881858e-05,-5.736755020923903139e-05,-5.614313782442480010e-05,-1.113390147577053785e-04,-2.073618141081687999e-04,-2.796267677319954855e-04,-2.941559494574036405e-04,-2.567935336161337621e-04,-1.751840782041810547e-04,-7.215494476320228245e-05,-1.044150032383507613e-06,9.168243240493320346e-06,9.967567467152711478e-06,1.003852827459388569e-05,8.353515221268265276e-06,3.545932313860786236e-06,-1.355279698201626592e-05,-6.743952209757472999e-05,-1.375735588720781381e-04,-2.157094224266079799e-04,-3.370508486200474228e-04,-4.621236404311645282e-04,-5.620971552131341295e-04,-5.549544826084840728e-04,-3.440258783323942027e-04,8.839177105469284655e-05,5.156492711783213032e-04,6.128346182923600539e-04,3.241101318341752077e-04,4.206935500191837817e-05,-1.355640551752325656e-04,-3.058096013709923769e-04,-4.002863525344266954e-04,-4.077204715708264210e-04,-3.475466354352133545e-04,-2.587905314903436054e-04,-1.579621545482326537e-04,-5.957503526355732417e-05,6.994748192350666382e-07,9.055998082455801788e-06,9.959868653026378120e-06,1.041379350060944769e-05,8.432403708289283186e-06,2.805527068458452355e-06,-1.036822839759686059e-05,-5.511479818695456164e-05,-1.193327220610950672e-04,-1.871261566282831485e-04,-2.866039507101379681e-04,-4.166742066926630550e-04,-5.225997626372967404e-04,-5.610182215887976999e-04,-3.388972155928746664e-04,2.428599025937205761e-04,9.791216027700768050e-04,1.122883616691308997e-03,5.259941152453536306e-04,-6.839249957293576905e-06,-2.937793417488300074e-04,-4.216008921475917527e-04,-4.518244791954055539e-04,-3.669864534096996776e-04,-2.611062990061116897e-04,-1.751557765472355039e-04,-9.880383270833263546e-05,-2.873747656208481090e-05,2.718562099690200936e-06,9.685829584717904717e-06,9.978849738683557996e-06,9.928044785719426375e-06,8.830757507394621983e-06,5.122947442865035411e-06,-3.471657310745938806e-06,-3.646228593559111992e-05,-9.682931912847027658e-05,-1.674046167279961853e-04,-2.724911896263939367e-04,-4.241706502533372047e-04,-5.674664748539881391e-04,-6.623348913685373493e-04,-4.401876938561564826e-04,3.573138689123747766e-04,1.407640592944817311e-03,1.436175502169724245e-03,4.836573573107470379e-04,-1.649196277394591526e-04,-3.820317179743966396e-04,-4.432027056015005843e-04,-3.642186862691550306e-04,-2.400136561631976094e-04,-1.478560494171985524e-04,-8.540423201082068209e-05,-4.127082261034522112e-05,-7.084760349807659860e-06,5.967212191973127442e-06,1.018268540580750725e-05,9.991941155108988892e-06,9.847467423749266965e-06,9.050772939741091156e-06,7.600275510214469793e-06,8.079495096928812599e-07,-3.118080393552388827e-05,-7.790610189921027043e-05,-1.475324044752083683e-04,-2.693797934094802971e-04,-4.430655627512051467e-04,-6.603192796257048927e-04,-8.043396446830310782e-04,-5.583022520107059185e-04,5.256284089866550789e-04,1.758105134777907192e-03,1.421859024912074717e-03,2.505557517548437211e-04,-3.518852359300283584e-04,-4.867477984617732010e-04,-4.266263659779253106e-04,-2.753610573471214178e-04,-1.603995262605521787e-04,-9.559973185043019682e-05,-4.903604578792803093e-05,-2.028845870937207431e-05,1.082459888844698932e-06,7.415360770437367126e-06,1.009515729462694140e-05,1.005949578137545989e-05,9.937255994419018682e-06,9.488182203351157819e-06,8.947331761979292262e-06,1.904051747897350613e-06,-2.895556318859528045e-05,-7.635655917101257873e-05,-1.560195827895866885e-04,-2.764107201658070798e-04,-4.917608792711989762e-04,-7.646495735188622335e-04,-9.273244274857612946e-04,-6.068461960679094906e-04,8.012990663678326705e-04,1.807039965673686282e-03,1.203649101033006392e-03,-5.036884751918279367e-05,-5.790358841361101239e-04,-5.789391494503198440e-04,-3.973481114151210573e-04,-2.420637123761714966e-04,-1.456151867937368173e-04,-8.976550979186145385e-05,-5.415057000676056382e-05,-2.716417944241228361e-05,-2.040195220902813021e-06,6.557123210883562506e-06,9.742723594510874105e-06,9.991717738110276231e-06,9.964359914914301667e-06,9.905147215455919826e-06,1.040922894781583109e-05,2.524615301883803347e-06,-3.278417365485161689e-05,-8.849130339233052213e-05,-1.750020008757079831e-04,-2.964984735993879167e-04,-5.187805867249059002e-04,-7.959978355864919279e-04,-9.289032580845846482e-04,-4.036590312632404288e-04,1.060794076132042397e-03,1.668883319249954509e-03,9.263868666159583197e-04,-3.860773617304157188e-04,-7.779378910170753640e-04,-6.172475315365499307e-04,-4.141903966833738559e-04,-2.619454117274586319e-04,-1.646469214198376010e-04,-1.050077978097835210e-04,-6.468389504487194865e-05,-2.841016815989873978e-05,-3.885087712415483824e-06,7.438129557057775643e-06,9.948346969000897562e-06,9.996934607238052489e-06,9.976788809000452618e-06,1.038207951411898113e-05,9.342438736973776630e-06,-1.363072401894690479e-06,-4.762745659858846388e-05,-1.173276504690996683e-04,-1.993968206751462347e-04,-3.208997731173250201e-04,-5.262840998196463820e-04,-7.372910612961763041e-04,-6.667668221429519761e-04,-1.332919889508307712e-05,1.182308886218555108e-03,1.544212463134731188e-03,5.425117274007825894e-04,-6.258784401306702588e-04,-8.363348736215921609e-04,-6.258505551906945854e-04,-4.379563450951070918e-04,-2.932346678492363809e-04,-1.929257052135449364e-04,-1.267692942177407929e-04,-7.631324113996056503e-05,-3.627959024254597697e-05,-6.998778374888608208e-06,5.425971161335206629e-06,9.543070921249319940e-06,9.997979990281733614e-06,1.004427861351676288e-05,1.013374907435998560e-05,6.135063211021736970e-06,-8.750426782653829879e-06,-6.811441576435574242e-05,-1.652242793170290895e-04,-2.539851833927447042e-04,-3.631115587836583418e-04,-4.893478250877332731e-04,-5.123674119225491395e-04,-2.952492757308204782e-04,2.810489500347235757e-04,1.210070901057313120e-03,1.316349564097017005e-03,1.757694960067822138e-04,-6.843004309441732408e-04,-8.110915694200908355e-04,-6.294928448671714997e-04,-4.395808444951237494e-04,-3.032133682485188488e-04,-1.980076823982803965e-04,-1.331347352784370975e-04,-8.562781020827938544e-05,-4.525777022186987578e-05,-1.640471903659055714e-05,3.891180331337473196e-06,9.682423128195990586e-06,1.000000000000000082e-05,1.022354095573469186e-05,9.058442802463126701e-06,3.245948403720802647e-06,-2.076643069874467166e-05,-1.105869049856915437e-04,-2.387480349881478483e-04,-3.222671288651891863e-04,-3.786643739550591033e-04,-3.784944120351351219e-04,-2.042734939280558865e-04,3.148839904860312882e-05,5.371686242130253213e-04,1.118406388904297178e-03,9.376732060345085518e-04,1.616241639323648917e-05,-5.981180905854754492e-04,-7.191695143775390150e-04,-5.870593200355784603e-04,-4.103289743193780045e-04,-2.847799760807313558e-04,-1.974306294274854863e-04,-1.358507110751956551e-04,-9.453391932793299153e-05,-5.497765965212587696e-05,-2.230332013583572449e-05,3.593845745187090130e-06,9.614853755669884591e-06,9.966172224800417772e-06,1.002108732039537150e-05,8.591979205670520513e-06,-1.406249429343716576e-07,-3.842417304449579604e-05,-1.564434381821001754e-04,-3.172179643414036691e-04,-3.808507485287934333e-04,-3.329797055533823317e-04,-1.942068877976567778e-04,-6.064665730522602942e-06,2.426448762190812629e-04,5.742007880597324587e-04,8.075764347046592668e-04,5.843662831220671405e-04,-1.546185924999482158e-05,-4.673435247255573310e-04,-5.746284813753964544e-04,-4.952446969511261959e-04,-3.631617082551639639e-04,-2.532366122784016982e-04,-1.898022826752979468e-04,-1.459372779988182020e-04,-1.007782557834248799e-04,-5.271038666257428187e-05,-1.230737779189218881e-05,6.792090779864136509e-06,1.050459994175638758e-05,1.002393580171759236e-05,1.003948157848212614e-05,7.582916922783172632e-06,-3.939923540949562489e-06,-5.023795220465193309e-05,-1.828554796913844840e-04,-3.168599887649375577e-04,-3.455518501429153061e-04,-2.359553160085554641e-04,-4.143410550103935209e-05,1.094178156620262833e-04,2.587810534829989282e-04,3.310348585168135368e-04,4.343977883825496681e-04,3.052003855044202072e-04,1.023195857967718698e-05,-2.736117035160430489e-04,-4.202675744520767745e-04,-3.775963533323936248e-04,-2.918384103217713452e-04,-2.255922052009323275e-04,-1.720767372467903200e-04,-1.291689410507103190e-04,-7.985857943490612312e-05,-3.645041460830856020e-05,-4.065366881572162817e-06,7.857939109831465398e-06,1.036674381122046319e-05,1.000000000000000082e-05,9.839199327847156145e-06,6.626132998196453647e-06,-6.712604750961563217e-06,-4.357656967989167698e-05,-1.389653140619869561e-04,-1.952343300350135001e-04,-1.858131917482827567e-04,-6.598619745789640288e-05,7.562187375606099337e-05,1.554601882678851199e-04,1.306404747011364817e-04,4.020333604507706762e-05,5.894572994746570457e-05,1.070324223433554393e-04,2.398473947068284018e-05,-1.119652516315033702e-04,-2.296344071751592211e-04,-2.612372453313753788e-04,-2.464580603015621013e-04,-2.021889697998392125e-04,-1.532643160356281567e-04,-1.113021329968068312e-04,-6.746703560732914744e-05,-3.048224193756523791e-05,-5.832194919207062423e-07,8.584896095935672068e-06,1.010175817529052807e-05,1.003937750999293312e-05,9.945080844311839676e-06,6.746989853037201141e-06,1.343041093260189234e-06,-9.472761340352663133e-06,-5.313779533386390206e-06,1.093622121813777848e-05,4.216475965226831342e-05,1.253309353372889250e-04,1.502111746255577771e-04,9.572534146189076796e-05,-1.207428279825239234e-04,-2.770839674049178003e-04,-2.284450593792250331e-04,-1.526593679210273946e-05,1.030285686127341716e-04,4.566167453983702726e-05,-7.107970713995504614e-05,-1.647240512058496906e-04,-1.859585341426654931e-04,-1.524341100956933155e-04,-1.131192987804914899e-04,-9.255021578624253919e-05,-5.111293496449118511e-05,-1.265708725083586358e-05,6.064911272564247152e-06,8.951823618147057956e-06,9.999163661763751096e-06,1.003814696280564985e-05,1.000623029639926064e-05,7.378309598658775245e-06,4.351857828692848085e-06,1.851069732193846718e-05,1.118487286763283732e-04,1.646484797100651685e-04,2.128865546225216772e-04,2.448241317656982188e-04,1.797680117267342389e-04,-2.718056511903770361e-05,-3.180440580354944530e-04,-4.830880382501819459e-04,-3.675540920559092531e-04,-1.455263103248769460e-05,2.120044398194836064e-04,2.191253831276213711e-04,1.091330363098345744e-04,-3.652432047802742123e-05,-1.029025682131471867e-04,-9.476778227213588539e-05,-8.021025821252391924e-05,-5.985058852612565832e-05,-2.518863612834883219e-05,-1.756778431075797443e-06,9.611174669021129130e-06,1.048725119754516930e-05,9.998455990948482808e-06,1.000000000000000082e-05,1.000000000000000082e-05,9.556426033609933588e-06,4.608692181052497336e-06,2.439819142504705369e-05,1.131876297443511474e-04,1.978912574245722522e-04,2.314664016836086801e-04,2.197096786669272149e-04,1.241619305201073031e-04,-1.040326400483389236e-04,-3.291030365454254009e-04,-3.881479565070117613e-04,-2.858313640927814857e-04,-8.369797522424620166e-06,2.380320478778299022e-04,2.668721099532161034e-04,1.471629057741294995e-04,-1.191577346607856273e-05,-4.705298956610849518e-05,-4.244375414710004719e-05,-3.663687321413163769e-05,-2.232539460619601006e-05,-9.803637350622949323e-06,4.765618931161081010e-06,1.000590024951215735e-05,1.094769566374233063e-05,1.000000000000000082e-05,1.000000000000000082e-05,1.000000000000000082e-05,9.900754508779942723e-06,6.696354503960286104e-06,5.912510945990708299e-06,3.240877364618746274e-05,3.968900851340500000e-05,-1.160990102585328174e-05,-8.913998036076038766e-05,-1.789226720761903330e-04,-3.101720444731331273e-04,-4.054671580953801702e-04,-4.275393331056350356e-04,-3.885454957859210126e-04,-2.494088764603069543e-04,-1.246983850017514990e-04,-7.726271995930536875e-05,-4.317807744588213084e-05,-3.240728486691728976e-05,-2.022220990978627650e-05,-1.389434894161698269e-05,-2.404105059728045381e-06,8.046111610692229794e-09,4.662953762687539035e-06,8.684963437636510634e-06,1.036833316732066469e-05,1.007705203090905640e-05,1.000000000000000082e-05,1.000000000000000082e-05,1.000000000000000082e-05,9.991866432938831193e-06,9.586416832309428221e-06,5.619330277932574128e-06,-1.999694583499398380e-06,-1.755740209209867277e-05,-5.314570557507195426e-05,-9.123757117683463749e-05,-1.425624662041052632e-04,-2.014001089552075571e-04,-2.166961031807685084e-04,-2.103326413771814047e-04,-2.127315762631548635e-04,-1.797549217348323541e-04,-1.428911763516992463e-04,-8.701451599475899606e-05,-4.441522329590501478e-05,-1.897735011592809588e-05,-8.561579388228495279e-06,-5.080237909547020078e-07,4.563447535591555491e-06,6.841287526651472419e-06,8.884476923813631533e-06,9.827748500836621336e-06,9.982617174643102753e-06,9.984072522425932109e-06,1.000000000000000082e-05,1.000000000000000082e-05,1.000000000000000082e-05,1.000000000000000082e-05,9.939666125809679362e-06,8.724521678125399138e-06,6.799840284780864122e-06,3.131508051347625377e-06,-2.139989575196190864e-06,-9.855744700479870718e-06,-1.784621584022352711e-05,-2.637934555195547748e-05,-3.307808759649765265e-05,-3.812762073168321990e-05,-4.526414241335960067e-05,-3.611506845659335585e-05,-1.975057845529191184e-05,-8.841537252644936812e-06,-1.452956872007406606e-06,2.298756515666879451e-06,5.264072208470278737e-06,7.160822144448149862e-06,8.364909890373041181e-06,9.347734831865035066e-06,9.860785068633715468e-06,9.998674200805331914e-06,9.994092614404697359e-06,1.000000000000000082e-05,1.000000000000000082e-05,1.000000000000000082e-05,1.000000000000000082e-05,1.000000000000000082e-05,1.000000000000000082e-05,9.969875833012218386e-06,9.890328408870669948e-06,9.783549731154436650e-06,9.614078717139594178e-06,9.531889937270593549e-06,9.361713478379298450e-06,8.197176492351762524e-06,8.431317598375097269e-06,7.943431269243793734e-06,7.626238484774350938e-06,7.626917982612913879e-06,8.298593881800933795e-06,8.563226461665015497e-06,8.710733669545576822e-06,8.653421044518992884e-06,9.689770810482241855e-06,9.823654601367471292e-06,9.907253736898701842e-06,9.903317806947567410e-06,9.985388679580020475e-06,1.000000000000000082e-05,1.000000000000000082e-05,1.000000000000000082e-05,1.000000000000000082e-05,1.354667837396930177e-05
1.000000000000000082e-05,1.000000000000000082e-05,1.000000000000000082e-05,1.000000000000000082e-05,1.000000000000000082e-05,1.000000000000000082e-05,1.000000000000000082e-05,1.000000000000000082e-05,1.000000000000000082e-05,1.000000000000000082e-05,1.000000000000000082e-05,1.000000000000000082e-05,9.882585875096883363e-06,1.028339832212624701e-05,1.060146726362942467e-05,1.002506113598456325e-05,1.000000000000000082e-05,1.000000000000000082e-05,1.000000000000000082e-05,1.000000000000000082e-05,1.000000000000000082e-05,1.000000000000000082e-05,1.000000000000000082e-05,1.000000000000000082e-05,1.000000000000000082e-05,1.000000000000000082e-05,1.000000000000000082e-05,1.000000000000000082e-05,1.000000000000000082e-05,1.000000000000000082e-05,1.000000000000000082e-05,1.000000000000000082e-05,9.992876003358870023e-06,9.975950429439453754e-06,9.716465196444286161e-06,9.057802088654803765e-06,8.518939626790451400e-06,6.909637233589380506e-06,6.225942283566692292e-06,4.775860550885675995e-06,3.566526046507355694e-06,5.888379528173521143e-06,8.262100346527858483e-06,1.068344627387896323e-05,1.935009472876774724e-05,1.017547258785502048e-05,6.909441730230228470e-06,7.079643588138270595e-06,7.709531500376249458e-06,8.694361298922007364e-06,9.680732616721842389e-06,9.922396782129532981e-06,1.000000000000000082e-05,1.000000000000000082e-05,1.000000000000000082e-05,1.000000000000000082e-05,1.000000000000000082e-05,1.000000000000000082e-05,9.993850145605318578e-06,9.987707274979246342e-06,9.689150373540733756e-06,9.922340701579845725e-06,8.831371831341953811e-06,7.454753000387613232e-06,7.209375585667651499e-06,9.192826708765022581e-06,5.993485646146790073e-06,1.056230815966707331e-05,9.829514680746418529e-06,4.507897207453377984e-06,3.241592911413325214e-06,3.569087478303798480e-06,-3.157715719029399895e-06,-1.823234538437053562e-05,-3.646959756320258014e-05,-4.108476998046372175e-05,-2.610717804045947351e-05,-1.664728146402525211e-05,-6.679369996142739405e-06,4.374062747418108002e-06,1.088078607037528784e-05,1.161701078662761231e-05,1.000000000000000082e-05,1.000000000000000082e-05,1.000000000000000082e-05,1.000000000000000082e-05,9.982438637181151333e-06,9.909659315827144694e-06,9.352611252190466142e-06,1.191896878996409704e-05,1.816536752263145152e-05,3.997025867474319750e-05,7.493226795419101482e-05,1.456338323802341766e-04,1.981962660357068488e-04,2.471146834436861858e-04,2.785795139444001032e-04,2.834160836579224796e-04,2.372232746483004151e-04,1.908820477765827317e-04,1.518889757496366406e-04,6.733604865241414942e-05,-2.570443902323078737e-05,-7.142886372329688548e-05,-7.842188007321252102e-05,-6.372067596136466122e-05,-4.243459281406150542e-05,-2.058084082237778052e-05,-1.061069243902709076e-06,9.642101244982216271e-06,9.761654149165271030e-06,1.000000000000000082e-05,1.000000000000000082e-05,9.986159156034926407e-06,9.864423715599296668e-06,9.786686556598376025e-06,8.421833452971835837e-06,2.843658368173300556e-05,7.035633667644415840e-05,1.363389168681783934e-04,2.417878007342757953e-04,3.992820514725873042e-04,5.151723812977036365e-04,6.328489184611033784e-04,7.062296925015845630e-04,7.025953688864778734e-04,6.737249546970922173e-04,5.958721941058958563e-04,5.191263635345083399e-04,3.444222112908053171e-04,1.458198234228470997e-04,-1.521689032690785055e-05,-1.031587602859855395e-04,-1.397336608451726231e-04,-1.207997574311683430e-04,-7.339389934478030854e-05,-2.872474704203833141e-05,3.028887923615018601e-06,9.306731862307949775e-06,9.751096955076554604e-06,1.000000000000000082e-05,1.000000000000000082e-05,1.005133371578266122e-05,1.074835145595792148e-05,1.504268321159372369e-05,5.704352757071700080e-05,1.440929948926184998e-04,2.875735576432879434e-04,4.577878448231238653e-04,6.095806848199941978e-04,7.080098930828160374e-04,7.663147023815081345e-04,7.685110420760389843e-04,7.808361124475752613e-04,7.751552888216248476e-04,7.567178413350982274e-04,6.798524576740656335e-04,5.222643862708597389e-04,2.749963742897330583e-04,4.304459591357087927e-05,-8.421407565446297698e-05,-1.274854232867221777e-04,-1.434727519242643464e-04,-1.292542921270520468e-04,-6.463973769047652357e-05,-8.848148243203137793e-06,7.024266030205202669e-06,9.623982737302157032e-06,1.000000000000000082e-05,9.994837613784623103e-06,9.787629241527467515e-06,1.198800975038385949e-05,2.455648981642322739e-05,8.831831877633599314e-05,2.185251886883470235e-04,3.842780057875567904e-04,4.903882139287701197e-04,5.421379230729992662e-04,5.289530977284552949e-04,4.776721218065774145e-04,4.375613707998104464e-04,4.265075386294839657e-04,4.280350130292899990e-04,4.068472012460259231e-04,3.523116137654557314e-04,2.685479702415991422e-04,1.432773669362296146e-04,8.901831293411641876e-06,-8.222804334735946054e-05,-1.150834384434016704e-04,-1.551030795542737814e-04,-1.806756414326698512e-04,-9.812316851107980064e-05,-2.544017711199578511e-05,4.045548430139261727e-06,9.331448086335564253e-06,9.997393660970848483e-06,9.551946915744978194e-06,1.296353010730352547e-05,1.262626862348958412e-05,4.228351485236671466e-05,1.240826530284897585e-04,2.749150985526329933e-04,3.423450306349018176e-04,3.505583267448214124e-04,2.955713631568711720e-04,2.641860521844811502e-04,2.603736413727956891e-04,2.120834874583797680e-04,2.082653389758738044e-04,1.911330862541329740e-04,1.302426253255206440e-04,7.994301756820084456e-05,-2.231898521596158096e-06,-1.918078407210754613e-05,-4.474943702117700620e-05,-7.701721224624915208e-05,-6.912448363958925788e-05,-1.066653015502622956e-04,-2.093471600694898080e-04,-1.386845674710553643e-04,-4.114094258810759876e-05,1.949686183792290169e-06,9.319367885817358366e-06,9.926532569934239691e-06,1.038445402767011111e-05,1.135925216639734924e-05,9.253276441531467831e-06,4.946705182696733175e-05,1.424878744976056566e-04,2.313427021527597041e-04,2.142426675610707254e-04,1.489684614090374434e-04,1.074550436739417082e-04,1.695867995793659869e-04,1.630454822609332904e-04,1.042958900712013978e-04,8.013067678938006584e-05,1.305570407474749509e-04,1.364337830436571097e-04,7.979398296500617095e-05,3.949723628280712702e-05,-1.641522994954347422e-05,-1.502339087472618988e-05,-5.879301147559637007e-05,-6.465995005528039658e-05,-1.213052232640057717e-04,-2.043871039712974393e-04,-1.699441597384167735e-04,-5.802025056225845853e-05,8.866281365046216853e-07,9.507008329862186183e-06,9.965109191560344996e-06,9.293654549552604122e-06,9.848633096077328834e-06,1.196289271045729390e-05,4.555838389772164267e-05,1.224644283391653507e-04,9.305004252963106049e-05,-2.967352628217241186e-05,-1.584820062650200967e-04,-1.315725294544471289e-04,-5.773894299429251721e-05,-9.198501675487219639e-05,-1.722564722078459847e-04,-1.742273417990625477e-04,-7.367038667294841198e-05,5.672463080646840156e-05,1.180352470422697694e-04,1.015717500510418585e-04,5.403032657621168697e-05,-4.563570397886272488e-06,-5.936876855830122728e-05,-8.747949897794707590e-05,-1.277579033899209381e-04,-1.991975103011777218e-04,-1.545235346812954115e-04,-4.878657941481636849e-05,1.920641161152418074e-06,9.333304370945082556e-06,9.949642432335415064e-06,9.168560069143238007e-06,9.038774318552443337e-06,1.332318998887939498e-05,6.110488543378233914e-06,7.883777187361034404e-06,-9.702718395229739602e-05,-3.300838550878776247e-04,-4.428947101163417514e-04,-4.533550011643786644e-04,-4.652972104017132917e-04,-5.333983833473358947e-04,-6.287093746515804576e-04,-6.323269159348743904e-04,-4.124322471655195079e-04,-1.790679101171332532e-04,1.463043665375457550e-05,6.591597678223001886e-05,5.108177680140180219e-05,8.206453546824206210e-06,-2.725179649416998670e-05,-8.416180822007078067e-05,-1.425455148258935570e-04,-1.669535669456661533e-04,-1.003469774890691297e-04,-2.636327590048509397e-05,5.824149952820767939e-06,9.520934228841067130e-06,9.961244979354141321e-06,9.450584827846560202e-06,7.586845088139988302e-06,1.892305902391516726e-06,-2.926161320091800748e-05,-1.388851903700673350e-04,-3.703758186987561856e-04,-6.177849643293522848e-04,-7.417751882803686912e-04,-7.880424794601623021e-04,-8.722434070284134462e-04,-9.729936797022190010e-04,-1.041826109554163304e-03,-9.734922341557673223e-04,-7.097405800879669647e-04,-3.756138117434088290e-04,-1.368181932868930051e-04,-1.069508214528421062e-04,-5.545376654944209841e-05,5.507251409568292538e-05,-1.605752785866141927e-05,-1.025100167551834014e-04,-1.888575662348235533e-04,-1.794558608343238765e-04,-6.793509504441914548e-05,3.439380852458176266e-06,8.662584278342338329e-06,9.866063587135411365e-06,9.983121920962996070e-06,9.700808239270141962e-06,8.532103852751668908e-06,-8.918130136035960204e-06,-6.187614158298401323e-05,-2.690616252669020205e-04,-5.790335631011172320e-04,-8.106336490533424871e-04,-8.801334906696274985e-04,-9.349710904556274077e-04,-1.023846844495618965e-03,-1.081616334828481218e-03,-1.056385683552174461e-03,-9.381293476362254731e-04,-7.311225548003052630e-04,-4.750839952391371470e-04,-3.270597046382627644e-04,-2.617668106474301242e-04,-1.058481902494306099e-04,3.940161919981548320e-05,-3.526057200422979377e-05,-1.493855731436637211e-04,-2.523902274357943875e-04,-2.360506840740925021e-04,-6.493308419547316745e-05,3.080802359632456788e-05,2.296312881399135785e-05,1.103171235683672806e-05,9.992295840718379838e-06,9.788036705883651647e-06,9.266607452043812635e-06,-7.539129060536720220e-06,-9.017711221739120966e-05,-3.474020541412080288e-04,-6.295175256094413981e-04,-7.842621342535207154e-04,-7.901547823242189130e-04,-7.805445592696832850e-04,-7.764140818984959164e-04,-7.002763953277192383e-04,-6.032277684541290140e-04,-5.148419559161864162e-04,-4.559315629508533282e-04,-4.343245278693269552e-04,-3.721386719236151027e-04,-2.544547491947926165e-04,-1.406938711639619350e-04,-6.776906985911542152e-05,-1.175264724042768966e-04,-2.200007716562004528e-04,-2.802085191485869102e-04,-2.254376532547547503e-04,-5.434846145617712535e-05,5.594772133142621520e-05,4.184400252716158667e-05,1.794023375625833895e-05,9.985977367651128136e-06,9.187946676314908282e-06,9.101284751610719923e-06,-5.394869271031096938e-06,-7.463761639537848857e-05,-3.095612916187397081e-04,-4.758972626773990116e-04,-4.984215221124766023e-04,-4.274049274890175977e-04,-3.555106309225454530e-04,-2.609881338220751412e-04,-1.142992236357515302e-04,-1.422212970745773834e-05,7.255735194317106500e-06,-1.038932864089112931e-04,-2.292815813245663542e-04,-1.923970001256575355e-04,-1.851945105107360772e-04,-1.327324436629788754e-04,-1.549090867075218357e-04,-1.841015638964578396e-04,-2.566555499690480603e-04,-2.686441985582587681e-04,-1.836494259814075132e-04,-2.563712735295483382e-05,8.010800767094676295e-05,5.605519762564124554e-05,1.134563944998927573e-05,9.995019213034714103e-06,8.711508643713711291e-06,7.763342224778910878e-06,1.268309673263846227e-05,-4.460208847178171362e-06,-9.865643328669109781e-05,-1.504527420341163376e-04,-1.183311117568187134e-04,-3.231343557490876317e-05,4.087466627518005624e-05,1.442682640963461596e-04,2.794361880738775836e-04,3.854133994283998380e-04,3.725527597331470056e-04,1.528507046230764138e-04,3.773223670901937359e-05,4.425357230868290511e-05,-3.387711655323414006e-05,-1.059069506625867499e-04,-1.417103875113625677e-04,-1.977067600329644823e-04,-1.963119424291946181e-04,-1.826206793103319812e-04,-8.429899841246262079e-05,8.071212161821229565e-05,1.451157907008380522e-04,7.484881683083933525e-05,1.626478459771248900e-05,9.997775396704515759e-06,9.195912110354885211e-06,5.532116824432143486e-06,3.930894723352739106e-05,1.049006429677888354e-04,1.389142345895412250e-04,1.916707577438226708e-04,1.846790210763423162e-04,1.880967564378586499e-04,2.714993981328920215e-04,3.651153330369502886e-04,5.108826807597683728e-04,6.476111409197446000e-04,5.481361298153542786e-04,3.135433699643030655e-04,2.511195858103660965e-04,2.743135768873645802e-04,1.678590771118846335e-04,2.455318296539818655e-05,-2.883041570382511939e-05,-3.681610715217821094e-05,4.268722436421952472e-05,7.642792143844628786e-05,1.508148168900431952e-04,2.381159166516486352e-04,2.494608400270267390e-04,9.519560398952061481e-05,1.808870588325844455e-05,1.000000000000000082e-05,9.536906396722114249e-06,6.615397516907829690e-06,7.545179931887009185e-05,2.264636712890022668e-04,3.617010868934262364e-04,4.195275723706750498e-04,3.773397773548835070e-04,3.396401931236195208e-04,3.744717111985430640e-04,4.550478120626219895e-04,6.263402563592220147e-04,7.135665415844132803e-04,5.968865491752967404e-04,4.068576984979493114e-04,3.830789185244347556e-04,3.341784908090722288e-04,2.189235466070416569e-04,1.203070764013882663e-04,8.373459482373350336e-05,1.633091267982891717e-04,2.552240567772335439e-04,3.278553073253587355e-04,3.817142273286185062e-04,4.250416318417206255e-04,3.005932683582765593e-04,7.986046342825968631e-05,1.436231390601582253e-05,9.979700607142998338e-06,9.872078610289299882e-06,5.591686786667116690e-07,8.568372717953223283e-05,3.036254367275773003e-04,5.017329985129709421e-04,5.537610870697610684e-04,5.487119373287980325e-04,4.567112388143717053e-04,4.648228113233617812e-04,5.877550907286752504e-04,6.858778314905697492e-04,7.533939447782135503e-04,6.418263557859306282e-04,4.462000323856665806e-04,3.255877924834469869e-04,3.062206908685767082e-04,2.434666390655973326e-04,1.903942311354103246e-04,1.993972106915607441e-04,2.903250310401993511e-04,4.194289244763366935e-04,5.269515472525431983e-04,6.046526251346697346e-04,5.277073877441181525e-04,2.605538973224586440e-04,4.679908744529541356e-05,1.523603397291778931e-05,9.992446351360564493e-06,9.674877615963057098e-06,-9.698928039415330928e-07,7.424402370828345383e-05,3.052438972011998542e-04,4.885699767147669032e-04,5.939040084510438175e-04,6.298474556635241675e-04,5.815731561624700504e-04,6.018714004208320419e-04,6.373196076208399426e-04,6.722522599059976844e-04,6.031812616518534469e-04,4.639345821559375449e-04,2.814055505124817176e-04,1.932624958385394240e-04,1.676295286664226546e-04,1.836571509227537529e-04,2.190730102687155870e-04,2.792065033367162699e-04,4.022299370148697622e-04,5.466816351906881666e-04,6.438652747984978430e-04,6.331047278557581969e-04,4.552755062553921479e-04,2.088210976300864004e-04,4.792026758517524491e-05,1.260972029156034847e-05,1.000000000000000082e-05,9.430454596215037742e-06,4.995641708379323555e-06,7.348050813094611402e-05,2.808754185128958174e-04,4.227474521690536744e-04,5.477020904448773450e-04,6.156258781443309756e-04,6.053081626991504158e-04,5.947878559964639737e-04,5.077521977028541826e-04,4.425037442068521375e-04,2.715113844580308911e-04,1.203068165865855510e-04,2.117980241655414964e-05,-2.625627111329405279e-06,6.559935556040561496e-05,1.525211931064325360e-04,3.139478777623733868e-04,4.422719613527992819e-04,5.358079555657847175e-04,6.323141341153961205e-04,6.478136573251154669e-04,5.647218732904668668e-04,3.665606933492322902e-04,1.265156435360838012e-04,3.145196323363089267e-05,9.967369390098591869e-06,9.991717815867689031e-06,1.004141485938092926e-05,9.974293567605432479e-06,6.108407088255061567e-05,1.864297466215424776e-04,2.974114034727853221e-04,3.926680309895933126e-04,4.574068862127543219e-04,4.802691839589272121e-04,4.964044187852044172e-04,3.789574962215584968e-04,2.421024641701225930e-04,6.904537149911407811e-05,-7.892048409708374572e-05,-1.794315588324610973e-04,-1.558380417787549833e-04,1.044237507874499362e-06,1.931988518900306609e-04,3.748456946595168731e-04,5.053759009389388688e-04,5.180158740418251695e-04,5.616091480382632032e-04,5.220757351315267157e-04,4.131729842057269616e-04,2.294719843437289760e-04,7.704089259078137860e-05,1.916614260609261707e-05,9.994115707303792673e-06,9.991976634121838862e-06,9.988946588316073943e-06,9.418667400362766884e-06,3.640454485672624377e-05,1.038197659630227075e-04,1.438993473067041876e-04,1.995125280580620360e-04,2.473997378140364097e-04,2.815529039196531212e-04,2.599756873562002950e-04,1.617818343658686611e-04,3.883480206271193593e-05,-1.214870072531253168e-04,-2.728215462849248709e-04,-3.406356565146662465e-04,-3.001179302158820512e-04,-1.337397409941158265e-04,5.239485882347648041e-05,2.518179553681369146e-04,3.359402095118144312e-04,3.746225961590628900e-04,3.731500692866647202e-04,3.133565868167411273e-04,2.062999629217088249e-04,1.026963369464874561e-04,3.448584757179274502e-05,9.629206194046524431e-06,9.989136690406999862e-06,1.000000000000000082e-05,1.000000000000000082e-05,9.019860732984147351e-06,8.055101863685165640e-06,1.153223779500883993e-05,-4.853909407154007688e-06,-3.747543489923101724e-05,-8.200215084217598129e-05,-1.294245949664958020e-04,-1.744570817216666925e-04,-2.367910667024843326e-04,-3.036750762433236073e-04,-3.952134490393543098e-04,-4.833718098899262455e-04,-4.836596224571995521e-04,-4.248375450967679197e-04,-2.950645126901579526e-04,-1.624705656667514578e-04,-1.504583854817981967e-05,6.851423906296713715e-05,9.617643446094960660e-05,1.270848061017602849e-04,1.123418187396895443e-04,7.058928058870382648e-05,3.632155480714647968e-05,1.969570807688225705e-05,9.774642115477869697e-06,1.000000000000000082e-05,1.000000000000000082e-05,1.000000000000000082e-05,9.244994596762979205e-06,-4.471795110402946123e-07,-1.523981436590897106e-05,-4.858970852050414679e-05,-1.099662372078061832e-04,-1.808999818185277821e-04,-2.478014548310748973e-04,-3.126715808033232302e-04,-3.615308318437184627e-04,-3.627641425686315541e-04,-3.459855073148582964e-04,-3.338095169912650264e-04,-2.980979456743238312e-04,-2.710024165353356338e-04,-2.224035869987235051e-04,-1.646332358491273855e-04,-1.168861542472945757e-04,-1.004731598005865529e-04,-6.194114469318552901e-05,-1.924058315005703002e-05,1.696168107178306354e-06,1.032009715047525888e-05,2.529487217170340137e-05,1.954575789168622115e-05,1.127529199981157758e-05,1.000000000000000082e-05,1.000000000000000082e-05,1.000000000000000082e-05,9.941442401171923318e-06,7.307908587413429019e-06,-6.214289876846767470e-07,-1.586469150831405951e-05,-4.008894001394437586e-05,-8.012004046249049383e-05,-1.220286305615043694e-04,-1.424824521511901146e-04,-1.464043654044336156e-04,-1.442013846979735335e-04,-1.364559669277830474e-04,-1.293718508336151563e-04,-1.120169332885025847e-04,-9.425986227127688857e-05,-8.656356274384737512e-05,-7.698017977047943885e-05,-7.297158819620219717e-05,-6.709295484723966092e-05,-4.234982697085848147e-05,-2.704626125913840931e-05,-1.226934598302173999e-05,-1.221351459513778700e-06,7.537060396904355188e-06,1.112016779185044523e-05,1.135744653100627081e-05,1.000000000000000082e-05,1.000000000000000082e-05,1.000000000000000082e-05,1.000000000000000082e-05,9.974092631030817587e-06,8.884594898505729859e-06,6.526457113137513966e-06,2.006665042092602958e-06,-3.650029369300404803e-06,-8.710979199324322714e-06,-1.232867010495917353e-05,-1.647592677741668528e-05,-2.017510977564971721e-05,-2.040775879225909054e-05,-2.156676862535979750e-05,-1.964710443898300176e-05,-1.647967573814152124e-05,-1.431815384025843296e-05,-1.055040328034901301e-05,-7.628815005008687834e-06,-3.956597462035800540e-06,-1.129306430648454635e-08,4.454588778322654584e-06,8.163413082872047813e-06,9.743851686992317175e-06,9.992250185841397697e-06,9.988597566227880900e-06,1.000000000000000082e-05,1.000000000000000082e-05,1.000000000000000082e-05,1.000000000000000082e-05,1.000000000000000082e-05,1.000000000000000082e-05,9.975617559423763489e-06,9.896637365731979775e-06,9.760172625587330389e-06,9.552508040355357389e-06,9.469566034972113632e-06,9.297856434822607580e-06,8.649347922474021993e-06,8.453795820912716051e-06,8.145495467483727760e-06,7.843542842336444592e-06,7.333800675104797456e-06,7.569276875050034839e-06,7.795659495081191378e-06,8.167577063583415824e-06,8.735453697739073209e-06,9.465511266980503575e-06,9.392810832998812356e-06,9.693567309521561098e-06,9.543000205241585388e-06,9.958815362269941650e-06,1.000000000000000082e-05,1.000000000000000082e-05,1.000000000000000082e-05,1.000000000000000082e-05,9.449821673289433578e-06
1.000000000000000082e-05,1.000000000000000082e-05,1.000000000000000082e-05,1.000000000000000082e-05,1.000000000000000082e-05,1.000000000000000082e-05,1.000000000000000082e-05,1.000000000000000082e-05,1.000000000000000082e-05,1.000000000000000082e-05,1.000000000000000082e-05,1.000000000000000082e-05,9.968133807137587621e-06,9.914253980235392599e-06,9.982228394651844570e-06,9.999259516443831947e-06,1.000000000000000082e-05,1.000000000000000082e-05,1.000000000000000082e-05,1.000000000000000082e-05,1.000000000000000082e-05,1.000000000000000082e-05,1.000000000000000082e-05,1.000000000000000082e-05,1.000000000000000082e-05,1.000000000000000082e-05,1.000000000000000082e-05,1.000000000000000082e-05,1.000000000000000082e-05,1.000000000000000082e-05,1.000000000000000082e-05,1.000000000000000082e-05,9.999331640820486642e-06,9.997678015308157772e-06,9.963789299208404454e-06,9.904331690188019878e-06,9.729008347999872674e-06,9.674495568556466227e-06,9.491732102467444332e-06,9.326009772891060478e-06,9.231943227910885540e-06,9.229005998417007887e-06,9.108399949883349943e-06,9.087122231011399010e-06,9.076411448268041944e-06,9.376908062718185451e-06,9.673907174200888911e-06,9.676416307591264763e-06,9.677024564906096143e-06,9.861643213562677743e-06,9.963495835343518249e-06,9.990312083395443029e-06,1.000000000000000082e-05,1.000000000000000082e-05,1.000000000000000082e-05,1.000000000000000082e-05,1.000000000000000082e-05,1.000000000000000082e-05,9.997057225651554384e-06,9.997175576931009589e-06,9.972405039603514975e-06,9.974668462004902337e-06,9.745515034415144635e-06,8.999158111010666203e-06,7.558589714456897721e-06,5.070105006153676882e-06,4.232667139306942354e-06,5.450700674233040655e-06,3.076398893614938720e-06,-1.250576521662013210e-06,-2.601912490630058063e-06,-5.163250857130366953e-06,-3.884744401962891669e-06,-1.843366133685768115e-06,-2.570856588421213276e-06,-1.409078801026516850e-06,2.317531329150851357e-06,4.795863089628587750e-06,7.011127294985247336e-06,8.987218256869985267e-06,9.701379622951374667e-06,9.967741367933680296e-06,1.000000000000000082e-05,1.000000000000000082e-05,1.000000000000000082e-05,1.000000000000000082e-05,9.988164773173356669e-06,9.965080574704809912e-06,9.772332032584077243e-06,1.709294338037658544e-05,1.628161860060421806e-05,1.950462060651434804e-05,2.307922564467071403e-05,2.503042072106618989e-05,4.274157945345373515e-05,8.776495528005323046e-05,1.277344635921671035e-04,1.343378479333128905e-04,1.514565608788380653e-04,1.323033046858239446e-04,1.024413795689490972e-04,7.774775958336347878e-05,4.649529378728167381e-05,1.684031369124947423e-05,4.196867922692317190e-06,-1.688940733934519056e-05,-1.272611417219395971e-05,-7.502058298267997682e-07,5.477662157610764044e-06,9.416758656318665804e-06,9.948821030704486397e-06,1.000000000000000082e-05,1.000000000000000082e-05,1.004295680501290130e-05,1.018265686087283160e-05,1.162931659259884195e-05,2.116762387501032014e-05,5.141962954876700255e-05,8.178144125372646439e-05,1.325609252275156873e-04,1.994674672270093806e-04,2.576018699493439965e-04,3.272611594845207194e-04,3.690737052304066601e-04,3.549234422515422892e-04,3.095492948812934831e-04,2.187144561821677312e-04,1.434203652599240920e-04,5.540595348035019145e-05,-1.999647603137792734e-05,-3.730094384961983828e-05,-8.937589222467104812e-05,-1.387081471532220086e-04,-1.456390860805932617e-04,-1.049914406437510862e-04,-7.314605109485100033e-05,-1.928464510267409286e-05,5.389616864862148471e-06,9.610061855535065545e-06,9.962533919356694702e-06,1.000000000000000082e-05,1.000000000000000082e-05,1.056262016844521131e-05,2.181235172762509386e-05,6.233424531565337370e-05,1.460937196267220075e-04,2.445649016740453902e-04,3.383764295098420677e-04,4.198052733007945217e-04,4.890128824548868732e-04,5.269063735241728006e-04,4.970442548067870864e-04,4.182637360316253405e-04,3.461160855116537927e-04,2.443906530387686600e-04,1.998718193756034026e-04,1.281919707104449337e-04,-3.929773450470702906e-05,-9.827170509652606882e-05,-1.328082067536327619e-04,-1.867042466956555418e-04,-2.389689814048792584e-04,-2.288306303204556502e-04,-1.653403621475343043e-04,-6.919289730685225883e-05,-8.541131049319365863e-06,7.348400515725265277e-06,9.898382076598601312e-06,1.000000000000000082e-05,1.005286973911011465e-05,1.212088062459676212e-05,4.889439149181321384e-05,1.354414039326280478e-04,2.537874210393595200e-04,3.861779315373002858e-04,4.575641785711052618e-04,5.323423602389647366e-04,5.750340767319992103e-04,5.540632604806318938e-04,4.872678614553050346e-04,4.431395251892555833e-04,4.468285035985690131e-04,4.294649179986329002e-04,4.135217030258429177e-04,3.447107519843113253e-04,1.934178649790214413e-04,1.269740188399933346e-04,3.263530284926051639e-05,5.244528829171404534e-06,-1.016932119423313510e-04,-2.189551625212707807e-04,-2.178191994306411189e-04,-1.148330236226464989e-04,-2.957475105420313529e-05,3.841388440027977255e-06,9.608868616896815718e-06,9.995810816879120600e-06,1.265152990802721388e-05,1.152295863644220618e-05,6.667493879824346818e-05,2.076473799786719666e-04,3.344944387157333513e-04,4.096029321998285186e-04,3.974288094427289530e-04,3.686136702617114785e-04,3.280787970399606009e-04,2.566421216119300669e-04,2.201004214354557165e-04,2.323559231727981690e-04,2.717555393519409737e-04,3.885706825472224919e-04,4.502707362237491845e-04,3.720360668250025224e-04,2.879037839691481692e-04,2.009177282461214206e-04,2.248610424304125100e-04,2.071044080492213664e-04,4.700551158718028734e-05,-1.363117191818015851e-04,-2.254653433567056406e-04,-1.507366849311547090e-04,-4.310738538925078467e-05,2.709614389265193589e-06,9.634392952687979942e-06,9.979411753695310158e-06,9.523610895640155310e-06,7.430005446483004096e-06,7.298178515609348674e-05,2.258535053352915230e-04,3.061556985857481804e-04,2.973072999473178155e-04,1.849037546222842717e-04,4.638026523791030252e-05,-5.551701731368111883e-05,-1.228445992551263611e-04,-2.037946418582180588e-04,-1.787868493691875378e-04,-5.113132253883594672e-05,1.922489904543730110e-04,3.818257103535702070e-04,3.784803741747047243e-04,3.033043879344477032e-04,2.844008489035931191e-04,3.235981164326316847e-04,3.248297716013323101e-04,1.562152105423467619e-04,-5.587649426015950496e-05,-2.247249726468419321e-04,-1.608628439322601811e-04,-4.940322057198018324e-05,2.504090637479967943e-06,9.763386168948653390e-06,9.909197192457218972e-06,8.837402713251841819e-06,8.292307857852247512e-06,6.264256980334738302e-05,1.655604875532009984e-04,1.684486042835415241e-04,9.089878788512824282e-05,-1.017123791553258742e-04,-3.299111335209465841e-04,-5.014643328292271458e-04,-6.461363524683492749e-04,-7.586859091647799643e-04,-6.217565332018152756e-04,-2.777487091592130398e-04,1.642316973176971898e-04,4.823907961450550142e-04,4.972717834155216668e-04,3.724405162952930089e-04,3.102738515029296513e-04,3.360911033836811238e-04,3.395155326402350638e-04,1.456600595778267059e-04,-5.245169296885557309e-05,-1.742432129277562156e-04,-1.226987423731346147e-04,-3.113043741306112974e-05,4.239777162512473991e-06,9.703666929542836887e-06,9.871267107604446149e-06,7.865331315952190486e-06,6.538878006031007578e-06,5.194736578367650331e-05,6.922400278245726150e-05,4.177330112637452195e-06,-1.549422916254389207e-04,-4.092892000546407313e-04,-6.816708425993530263e-04,-8.833414007751202827e-04,-1.015421410528584293e-03,-9.847038817829664899e-04,-6.586090419293409628e-04,-7.800369735275588167e-05,4.180399213138609633e-04,6.375481461631583337e-04,6.097715330987147492e-04,4.650838567188092629e-04,3.731004559429302908e-04,3.188159967221865731e-04,2.225038938236214615e-04,2.010728485958245118e-05,-1.126256375306582699e-04,-1.276825651693592578e-04,-6.821448152861583067e-05,-1.159046200296034419e-05,6.625192637484229233e-06,9.864917637341385313e-06,9.908639265195394314e-06,7.862914785537754414e-06,5.616386759206796381e-06,2.835658308721553247e-05,4.218461179464676589e-06,-1.217512492181134520e-04,-3.281861563919308234e-04,-6.028808920872226430e-04,-8.306464972199570362e-04,-9.156672145348833478e-04,-8.968003955967417855e-04,-6.647686204493093772e-04,-2.203697796288972110e-04,2.945957320023306382e-04,6.285678921065295053e-04,6.997780339301180137e-04,5.787837956055025181e-04,4.614088212743831471e-04,3.339038683856888011e-04,1.914828581141953228e-04,2.191618056005076534e-05,-1.652795777501815460e-04,-1.807917963902302082e-04,-1.183120611317745301e-04,-4.527455079453643886e-05,1.361934245376216738e-06,8.349382276278036582e-06,9.939337454831338682e-06,9.971835959869252813e-06,8.047728350575680619e-06,2.343435452359271293e-06,4.681824045893075422e-07,-3.377442694474296569e-05,-1.636853917193158679e-04,-3.741116025101732059e-04,-5.919258512242466701e-04,-7.098724863586654277e-04,-6.570446005179410038e-04,-5.008282459725688475e-04,-2.111207340695078684e-04,2.314916186611392279e-04,5.615313918558629581e-04,7.106185124832587298e-04,6.094364854527029767e-04,4.868391783857217540e-04,3.406935792188220879e-04,1.748695715274429076e-04,-4.090358901649295367e-05,-1.924168798392028731e-04,-2.674073276627130934e-04,-2.100273008232721357e-04,-1.240743657409773310e-04,-3.825465878903001139e-05,6.520220457300832055e-06,9.169649247559563383e-06,9.883892070225087746e-06,9.988964928350766754e-06,8.791974287025103793e-06,5.357338330353664484e-06,7.259623110098908988e-07,-3.994998713781558746e-05,-1.620211004823575278e-04,-3.355228854271733027e-04,-4.935810759133141441e-04,-5.221476308644055694e-04,-4.544880102816449639e-04,-3.050229990576294931e-04,4.513766119516738197e-05,4.618090492302486037e-04,6.078941459242168197e-04,5.084528684536737241e-04,3.268737933891970992e-04,3.299741867100314100e-04,2.377194590237967885e-04,9.530182527552448772e-05,-1.084028361705957865e-04,-1.962745781381500091e-04,-2.143292295437624977e-04,-2.047821975540690292e-04,-1.289586962801944517e-04,-4.596567146922806357e-05,2.538206421291956589e-06,8.997300151021606583e-06,9.578415829068766569e-06,9.608450009660383118e-06,1.096604260075132931e-05,8.715191035430655894e-06,8.528997912686812473e-06,-1.961029388188061296e-05,-1.306798923369201215e-04,-2.929693979478954140e-04,-4.102909307663737547e-04,-4.287806760331687602e-04,-3.673013447797792699e-04,-2.429386770036704064e-04,5.551570110173520672e-05,3.734366371238361589e-04,3.340122168383399944e-04,1.983747746859089499e-04,9.511158687348977836e-05,1.240913969702777233e-04,1.642733917989606701e-04,1.627587456825692563e-04,7.789080403276926593e-05,5.562774413221782616e-06,-3.611367678116805206e-05,-1.290701291364560680e-04,-1.133993809036123790e-04,-5.121204611734886213e-05,-3.294521096984083138e-06,7.302862386123748682e-06,9.711601343968363439e-06,9.869807591904440649e-06,1.263852454368079763e-05,1.609575218012279424e-05,2.566805422015627365e-05,2.239499392119339473e-05,-6.840428621117924577e-05,-2.183989532350584517e-04,-3.648950954235466232e-04,-4.674392776883957100e-04,-4.757267827002113303e-04,-3.547681373680203762e-04,-1.085999864155777272e-04,5.902020163693389609e-05,1.269165458248470673e-05,-9.434697998970091462e-05,-1.250833507593458933e-04,-4.330779471565250865e-05,1.107853310002699759e-04,2.343031995425472224e-04,3.043412648999011872e-04,2.861058554128086606e-04,1.618233744382471307e-04,1.975939525087201830e-05,-5.647223343535889015e-05,-4.237180526279689158e-05,-9.323738485432958283e-06,7.015898950013598089e-06,9.630541677153446628e-06,9.988652719482519818e-06,1.225960525977100923e-05,3.192511126107119439e-05,7.060607963052238536e-05,9.501119951743907137e-05,6.064243611592630216e-06,-1.634150790324817647e-04,-3.178127795394309436e-04,-5.062875934070185232e-04,-6.117710641540790705e-04,-6.273195143736445779e-04,-4.951650102989244668e-04,-4.016890781232001248e-04,-4.194725929853109717e-04,-4.867764147320030967e-04,-3.891926267220537127e-04,-1.332001362691085039e-04,1.424266285892208440e-04,3.550812230819445025e-04,4.350358885322549996e-04,3.974197047359165802e-04,3.077875893944335538e-04,1.342543310008437510e-04,-1.248479562640957844e-06,-3.612211968710562848e-05,-1.582241282528976971e-05,4.710151127223116610e-06,9.653582895372017389e-06,1.000000000000000082e-05,1.104705043430882149e-05,4.009041395818646575e-05,1.322094644112367830e-04,1.942297388365145925e-04,9.355213974967731304e-05,-9.293281989709339843e-05,-2.645108664776676380e-04,-5.005335126799846743e-04,-7.580462714282670822e-04,-8.773716419061417925e-04,-8.580058100755347640e-04,-7.970137900270192347e-04,-7.985980056725324036e-04,-7.723584787796412658e-04,-4.643265672727955092e-04,-3.681819728882192904e-05,2.852884754999911849e-04,3.913276549871249916e-04,4.866151530644133327e-04,4.102193114310636332e-04,3.684169645411716960e-04,2.104314791071715978e-04,2.471399576686117769e-05,-6.843767754733791906e-05,-2.491707045840581183e-05,4.967157153043777587e-06,9.779823052749537894e-06,9.862001781408802857e-06,1.039908818293613722e-05,4.863372728193615869e-05,2.137688881544949941e-04,3.223835409736412424e-04,2.592701273830306944e-04,7.429574118901582198e-05,-1.635418816188546464e-04,-4.041331581404287456e-04,-6.799264607825222404e-04,-8.362352455725886912e-04,-8.602203816390202725e-04,-8.664016549846528196e-04,-8.501078119258289895e-04,-7.422682810123596786e-04,-3.187475068426724083e-04,1.616334357921005692e-04,3.930736056840143048e-04,4.774712825426205760e-04,5.039242391774471572e-04,4.368688414976869402e-04,4.001149647613178972e-04,2.129048783198513723e-04,-1.762466468762162341e-05,-9.134524002460269224e-05,-2.424138785941432512e-05,5.129221381223434911e-06,9.654119056783345509e-06,9.996978200182151758e-06,1.056802705432914723e-05,6.005038911617166660e-05,2.707094220152715235e-04,4.293359645897401491e-04,4.439603455143983132e-04,2.766552826757494527e-04,6.454515785172534274e-05,-1.607610015387939822e-04,-4.028261705416721016e-04,-5.687723778552265406e-04,-6.515584574595384556e-04,-6.449224299786501542e-04,-5.691780119726412394e-04,-4.130452172765322833e-04,-9.380359376250175444e-05,2.534496198102799153e-04,4.607254242334108698e-04,5.062247121058736140e-04,4.972262805480491196e-04,4.340007254247953529e-04,3.455676718248968412e-04,1.135514187124239834e-04,-6.887142165784249732e-05,-8.178600969130417526e-05,-2.053536078268648735e-05,4.861511029538259839e-06,9.794918341346763808e-06,1.000000000000000082e-05,1.129022281430413722e-05,5.736596190036125998e-05,2.756995122218703514e-04,4.687824475592042143e-04,5.428119470324481530e-04,4.585053888230227717e-04,2.976460428056022052e-04,1.473498725763734490e-04,-3.700857563762427309e-05,-2.504550893414497791e-04,-3.461482703275945718e-04,-3.583693262939695832e-04,-2.472084338226713716e-04,-7.683187928171366602e-05,1.021725239918114177e-04,3.125038782007414566e-04,4.254643187236875970e-04,4.633200102582665423e-04,4.190888112614338137e-04,3.711377046155219157e-04,1.910615450078480618e-04,-1.857235008620483865e-05,-1.002639877668740846e-04,-6.991326824285749809e-05,-1.087021694126686372e-05,6.395962406318375590e-06,9.972935818537557564e-06,9.993414113347373883e-06,1.114508475773989842e-05,4.967619693840620587e-05,2.061458837465871669e-04,3.986733742221020872e-04,5.164886605600383686e-04,5.435972559015555270e-04,4.452998699682461170e-04,3.407382158653308080e-04,1.662935855034639379e-04,1.293975292581206784e-05,-1.120954909572263064e-04,-1.032020001317217605e-04,-2.408473830591286807e-05,6.949276407291475231e-05,1.913797127419375303e-04,2.974161370140419847e-04,3.320947372580455837e-04,3.655795632302524128e-04,3.068589775338386198e-04,1.648675990098035838e-04,-4.011289562439708429e-06,-1.004930223213612052e-04,-9.995698422234985004e-05,-4.925356076111585035e-05,-4.211069200441185883e-06,7.846558813631431683e-06,9.993352593456131673e-06,9.993619922305247352e-06,1.007118378606984769e-05,4.015702892298979180e-05,1.360180436140638962e-04,2.904865357025767096e-04,4.118366849658050555e-04,5.100334374580311851e-04,4.936775712828916354e-04,3.954759043465177061e-04,3.543546608579664159e-04,2.655820005585907639e-04,1.787533496752466314e-04,1.054280300810259212e-04,1.225822158715450180e-04,1.363620364203515232e-04,1.714584405854493738e-04,1.924522222334104865e-04,2.062542307414229380e-04,1.708237281335775622e-04,1.082615470091895303e-04,-6.891712750738793464e-06,-9.557879810413442870e-05,-8.409298024771042965e-05,-4.999239103971548568e-05,-1.725256857707383379e-05,3.435055831625571439e-06,9.793586776024039664e-06,9.987727864842067178e-06,1.000000000000000082e-05,1.000000000000000082e-05,2.213406422881348601e-05,7.802751453666210090e-05,1.984631007337980260e-04,3.203266936415891087e-04,4.445886191261847202e-04,4.994628407877643858e-04,4.355913708452362307e-04,4.120789122773112776e-04,3.759434506423293900e-04,3.208912500898739549e-04,2.362690586610464495e-04,2.167702024301561335e-04,1.309366561971750018e-04,8.156018312408491830e-05,2.648084623825237518e-05,4.728169132393444924e-05,5.395635900877702838e-05,-2.749252075772160982e-05,-8.793997387343602246e-05,-8.201957609297802487e-05,-5.203312188327233613e-05,-1.999792466085695476e-05,1.496041327784022422e-06,7.695206980443657164e-06,1.021216748888903312e-05,1.000000000000000082e-05,1.000000000000000082e-05,1.000000000000000082e-05,1.371762077555191676e-05,4.009220335930134430e-05,9.930930372475589736e-05,1.716404093626277833e-04,2.793213186005885293e-04,3.684262418135642210e-04,4.069903228462991513e-04,4.273328514465110552e-04,4.568716456059790745e-04,4.382752126974799774e-04,3.731677671730998817e-04,3.382658796630192669e-04,2.168401049769578897e-04,9.975546581291625740e-05,4.575187014923718602e-05,-1.348858249899447740e-05,-7.825733424063769641e-05,-8.339400985214696568e-05,-6.409903968367339114e-05,-3.239402588099188411e-05,-1.294596731316519485e-05,4.629182326229861658e-08,5.679878378458303854e-06,8.921233898700393927e-06,9.982762962863553962e-06,1.000000000000000082e-05,1.000000000000000082e-05,1.000000000000000082e-05,1.037674980546946149e-05,1.084729533825295635e-05,2.159031873789087652e-05,3.654128543344525924e-05,6.131797206817402425e-05,8.809350926274488777e-05,1.294899900365099063e-04,1.591830497660335492e-04,1.942085357299685468e-04,2.102839041741292778e-04,2.117802899005895181e-04,1.663033808063136437e-04,9.496651027857321915e-05,2.647214393708367057e-05,-1.092600790716088975e-05,-4.482093943731366772e-05,-3.974432070577723318e-05,-1.850825983435741920e-05,-1.556528386362976676e-05,-8.186164920795794531e-06,2.689277762835600794e-06,7.136491650580184724e-06,9.620534498066184652e-06,9.930555180415689774e-06,9.988252810923884528e-06,1.000000000000000082e-05,1.000000000000000082e-05,1.000000000000000082e-05,1.000000000000000082e-05,9.968030654194435275e-06,9.450361483571655244e-06,9.976921361634999444e-06,9.120486700151129100e-06,9.403538367964227361e-06,2.255609333702379548e-06,-5.196847535577281021e-06,-1.121981260087198960e-05,-1.742278669557352600e-05,-2.509134559046222694e-05,-3.036450011884258199e-05,-3.942960685369490455e-05,-3.563200927217650570e-05,-2.573335395143117228e-05,-1.822401402115032999e-05,-8.931079793752798622e-06,-1.263193531413879960e-06,3.743924363487194109e-06,6.234230627816945270e-06,9.112964151718644682e-06,9.759141262432916258e-06,9.986653190504820048e-06,9.996123505826714242e-06,1.000000000000000082e-05,1.000000000000000082e-05,1.000000000000000082e-05,1.000000000000000082e-05,1.000000000000000082e-05,1.000000000000000082e-05,9.989949156850030457e-06,9.935735564451728870e-06,9.820073429080828408e-06,9.592268934196907006e-06,9.456140707656345866e-06,9.096475855213774430e-06,8.087524974121671444e-06,7.718897032217084532e-06,6.616375754323828968e-06,5.090991407316633519e-06,3.125430988188339403e-06,3.567165952203016082e-06,3.121423854704737989e-06,4.240834932248638258e-06,5.992998425009050283e-06,7.967969034040039137e-06,9.087684766318182257e-06,9.538291556765920312e-06,9.738444704197878087e-06,9.964557085962517770e-06,1.000000000000000082e-05,1.000000000000000082e-05,1.000000000000000082e-05,1.000000000000000082e-05,8.491169378619263034e-06
1.000000000000000082e-05,1.000000000000000082e-05,1.000000000000000082e-05,1.000000000000000082e-05,1.000000000000000082e-05,1.000000000000000082e-05,1.000000000000000082e-05,1.000000000000000082e-05,1.000000000000000082e-05,1.000000000000000082e-05,1.000000000000000082e-05,1.000000000000000082e-05,9.469559698925122672e-06,8.595382214036751881e-06,9.729435664997202740e-06,9.988726486041541369e-06,1.000000000000000082e-05,1.000000000000000082e-05,1.000000000000000082e-05,1.000000000000000082e-05,1.000000000000000082e-05,1.000000000000000082e-05,1.000000000000000082e-05,1.000000000000000082e-05,1.000000000000000082e-05,1.000000000000000082e-05,1.000000000000000082e-05,1.000000000000000082e-05,1.000000000000000082e-05,1.000000000000000082e-05,1.000000000000000082e-05,1.000000000000000082e-05,9.987408858185969500e-06,9.940277819360791612e-06,7.700039641544134054e-06,4.581329092711584489e-06,3.649465577710131589e-06,3.919496073766874792e-06,-1.348931234892463903e-06,-5.071160291636253767e-06,-9.008555570837977324e-06,-3.810473096300578120e-06,7.130427334470423890e-07,-1.824860768969223250e-06,-2.637874532969254850e-06,2.995778800035080231e-06,6.156939052548455603e-06,7.195164468464719138e-06,7.434912727239366284e-06,7.516027652720730650e-06,8.042664213640310087e-06,9.430481004909880972e-06,1.000000000000000082e-05,1.000000000000000082e-05,1.000000000000000082e-05,1.000000000000000082e-05,1.000000000000000082e-05,1.000000000000000082e-05,9.992485617922807099e-06,9.926188965046638089e-06,9.624704118044844731e-06,9.785865565101235794e-06,6.336849893013481883e-06,-4.120662688209362362e-06,-1.193745779998481002e-05,-2.231021693016894885e-05,-4.757970286563799881e-05,-6.621097902392244258e-05,-8.712704564567706539e-05,-8.903572298942302667e-05,-8.343102936257666853e-05,-7.724371292660561425e-05,-6.457284522531670260e-05,-4.520882968457828844e-05,-3.124515457470913518e-05,-1.551769983210338791e-05,-6.601706871370643702e-06,-2.824895485379306307e-06,1.281252759262838100e-06,5.736502746225190966e-06,8.314483603124319552e-06,9.511097704703342718e-06,1.000000000000000082e-05,1.000000000000000082e-05,1.000000000000000082e-05,1.000000000000000082e-05,9.980267342095231370e-06,9.656368244803567445e-06,9.604168183696393834e-06,8.506425523073003159e-06,1.811448991383599282e-06,-1.268034514657759392e-05,-3.585560053703470713e-05,-6.920534998250585216e-05,-1.107282041063711148e-04,-1.522746257611063835e-04,-1.942327368170957465e-04,-2.221017943292596963e-04,-2.188521122389892187e-04,-2.039930368876116413e-04,-1.746175596261066981e-04,-1.443568755086457227e-04,-1.082066584931589131e-04,-6.320467053096895176e-05,-2.973363112227613554e-05,-9.040210568067483617e-06,1.208218895857262317e-06,7.793226965728032937e-06,6.314196533879837326e-06,9.367292620092900873e-06,9.888331884209915817e-06,1.000000000000000082e-05,1.000000000000000082e-05,9.996341918396543688e-06,9.961199177842272940e-06,9.722624504843401549e-06,1.183679469382084864e-05,1.157629886744429233e-05,1.615189033925575492e-06,-1.247889063974276118e-05,-4.732589100253829588e-05,-1.023358721991692136e-04,-1.777501369485313834e-04,-2.320062996527098864e-04,-2.893409160208695267e-04,-3.300860043785259676e-04,-3.503908640591764335e-04,-3.344889403808995335e-04,-2.647460749958085568e-04,-1.993999366564956437e-04,-1.415726773208211397e-04,-5.572162337495495144e-05,2.418058603534448792e-05,5.125309646710991330e-05,7.290080796567606361e-05,6.646166566565887856e-05,3.685603772020511372e-05,1.338777595397018336e-05,9.407833202481845602e-06,9.803236232142775600e-06,1.000000000000000082e-05,1.000000000000000082e-05,9.893690609399863879e-06,9.982574648684419859e-06,1.609408849560736590e-05,2.912905395829251391e-05,3.990596177601627559e-05,3.351620029007838889e-05,3.953638287432014131e-06,-2.282915487406930963e-05,-1.128791737106704830e-04,-2.071177025285344132e-04,-2.908425229995425230e-04,-3.563925089311870413e-04,-3.509360649198498667e-04,-3.088601359369544494e-04,-1.607914399890032113e-04,-4.313829483606515492e-05,6.299737652782335859e-05,1.298160412061719841e-04,1.796769921460830688e-04,2.205359245634431141e-04,2.631189523269529301e-04,2.471767927743928920e-04,1.143614913263260580e-04,2.501181066218495123e-05,6.892280433637140428e-06,9.863485200727418534e-06,1.000000000000000082e-05,9.998572059144669676e-06,9.261740451670253860e-06,7.912155517642503847e-06,2.497904807703770467e-05,5.080682172993323788e-05,6.544053816788384303e-05,7.478947551381184367e-05,4.147792793441503986e-05,-3.712177856864202666e-06,-1.149047626143930316e-04,-2.905704357284139938e-04,-4.268303263357704227e-04,-5.974251290083724053e-04,-7.801138318785197671e-04,-8.006809583227019128e-04,-6.068240173883892880e-04,-3.439077680614455656e-04,-1.400673816451951956e-04,3.978715287318439783e-05,1.588962504829661334e-04,2.940289242657849445e-04,3.996789068090344284e-04,3.527721433468059995e-04,1.526109922743251431e-04,3.026371502095485038e-05,1.008288648422490011e-05,9.104547176209167860e-06,9.993634246923516049e-06,9.747387754523329452e-06,8.014413792232708678e-06,6.464163460993717765e-06,2.040863751086336930e-05,4.689426824918093345e-05,3.857808960851781283e-05,3.883231980974821321e-05,-1.272413599390386407e-05,-8.238225420938882120e-05,-2.351310679559555827e-04,-4.434308466020053796e-04,-6.463458395654506821e-04,-8.664752963867345054e-04,-1.195681566733338081e-03,-1.312207820362490960e-03,-1.042698231982815658e-03,-6.170869386297304525e-04,-3.220010490371346865e-04,-1.388604549402794135e-04,1.160572733260757859e-05,2.150840402768307963e-04,3.200294112908294596e-04,2.567506175943779076e-04,7.750989909638819413e-05,-1.443818161722127742e-06,4.134206369794449854e-06,9.048323685586762263e-06,9.900470534125594191e-06,8.081093121988115120e-06,3.625565241411367984e-06,-4.349512531370316304e-06,3.464700921446837303e-06,1.610102990129187530e-05,-8.435736091569482405e-06,-2.016356318520818897e-05,-9.376412483795462226e-05,-1.298693056814746120e-04,-2.790194289017471595e-04,-3.964000526946293533e-04,-5.587426381752354058e-04,-7.918387005935756699e-04,-1.192481234020130541e-03,-1.285434844457293601e-03,-9.153488042517504480e-04,-4.548411478483045537e-04,-2.172308357207797214e-04,-1.353491695384353413e-04,-3.068285774275354846e-05,9.112734941261708217e-05,1.279591588147703345e-04,6.252355942478141234e-05,-3.488827530165435271e-05,-5.163112980661471057e-05,-1.000333739484075847e-05,8.195563139359742674e-06,9.769226829125156968e-06,7.064372340825091941e-06,-8.555706627880896153e-07,-2.260547786043295366e-05,-2.839050722137781836e-05,-2.708104023143706511e-05,-6.860850016965787921e-05,-6.926055517017992626e-05,-9.491331515621310175e-05,-9.306945541572577373e-05,-1.309532938869024758e-04,-1.560727195652546499e-04,-2.195304188806068571e-04,-5.361152690709062750e-04,-1.014102430503692389e-03,-9.483365491831078796e-04,-4.272822005021887108e-04,-4.712418851073050857e-05,1.093661471348939186e-05,-5.219788898290686870e-05,-5.227717427016790469e-05,-2.792674778980192953e-05,-4.767932713236355835e-05,-1.056976787580509055e-04,-1.411213466549634892e-04,-8.283311198443192504e-05,-1.420666505579325720e-05,7.792400030522368215e-06,9.707755244593330805e-06,6.910678926479937088e-06,-4.380510598616948663e-06,-2.819485708179899399e-05,-3.867782088944773477e-05,-5.856121416722014257e-05,-9.366048552083255767e-05,-6.356572056357490455e-05,-6.418107566100965621e-06,1.208585103013376180e-04,1.762217508432901633e-04,2.145421410257122331e-04,1.223895969439695800e-04,-3.940533780524253056e-04,-8.415197749735070162e-04,-5.688419116046939100e-04,-9.202359698045236959e-06,3.112739251702116941e-04,1.608690374494641646e-04,5.974943680241911989e-06,-1.025222591987568643e-04,-1.291074806220690759e-04,-1.525446262383087497e-04,-1.716533191649263583e-04,-1.167202509265804247e-04,-5.868842378418791538e-05,-7.970974080978912162e-06,9.129477104192846914e-06,9.874389072225125285e-06,6.285295687082067234e-06,-8.126887774011351063e-06,-2.225493176414069108e-05,-3.747023038909197168e-05,-4.568921221799258469e-05,-3.816934036569621236e-05,4.600593348658573004e-05,2.125381085127425371e-04,4.065328153353235381e-04,5.832616375666751932e-04,5.834451593125310849e-04,2.562345316477012726e-04,-4.221402185310103384e-04,-6.930225790169621501e-04,-2.649932806539882649e-04,3.891775700990032067e-04,5.425363313450870398e-04,2.487481320582374169e-04,-3.815324658248239102e-06,-1.625017528530476793e-04,-1.788851898004153941e-04,-1.785848629623839213e-04,-1.557380772209316267e-04,-8.209123944091873608e-05,-2.561366088226191048e-05,2.941984004218266365e-06,9.648748560294990675e-06,9.960841633475067035e-06,6.663361781386337419e-06,-3.915676664387216555e-06,-1.879580174521486047e-05,-3.173794957668935870e-05,-1.436006304863892601e-06,1.086110832382861715e-04,2.984066059938043198e-04,5.153432575415566866e-04,7.241437718734408235e-04,9.206972967642675088e-04,8.105311337843083613e-04,2.956350936906084240e-04,-3.149776236839354733e-04,-5.008986168097591396e-04,-5.017059843302848244e-05,5.754795117270295086e-04,6.321251799636310028e-04,2.899590390337867347e-04,1.708218207956980204e-05,-1.142230758452175243e-04,-1.212069732818571991e-04,-1.251365665500640812e-04,-1.060517025826652012e-04,-3.703038980846063924e-05,-7.954243039810579151e-07,6.042459557066866368e-06,9.288181458977755266e-06,9.997322692042526692e-06,8.583440546331747408e-06,1.040954807792935846e-06,-1.006061391271565510e-05,1.199461768430810960e-05,1.126276036184073372e-04,3.401954457201946443e-04,5.898204151234246904e-04,7.701338390698032150e-04,9.421105936999119501e-04,1.100141803282338225e-03,8.974163762104092352e-04,3.340471924057796449e-04,-1.585061195351569632e-04,-2.761639660357943869e-04,1.140882514468321017e-04,6.684680427549683727e-04,7.674157194216185479e-04,4.297952951022576944e-04,1.821085833447886508e-04,1.094080915070059048e-04,1.768771052432570760e-05,-3.196023196941705577e-05,-4.697449658333254066e-05,-2.871533218132364188e-05,4.407637921899982429e-06,7.497679720929954440e-06,8.330951432140583273e-06,9.975484912377601297e-06,9.360848196318659025e-06,6.455676164473212124e-06,1.055860024315597195e-05,8.265172308414000060e-05,2.526273734061434137e-04,5.489297988254994301e-04,8.138617877121714569e-04,9.317031200489084026e-04,9.776094364000102559e-04,1.006008263620416588e-03,8.118452494767137593e-04,4.377485555867039325e-04,5.415667586761267760e-05,-3.523131511989673813e-05,3.393002277997936300e-04,8.607147952415775041e-04,9.396863330691019364e-04,6.458384526061026944e-04,4.788118375476441884e-04,3.017233975876646660e-04,1.271592929150112364e-04,4.658226763655261136e-05,7.058635291697070707e-06,-1.984323944495564667e-05,-3.239055083318222495e-06,4.033848501953567558e-06,9.821609915716594726e-06,9.986606863877130818e-06,9.937954940165821940e-06,1.030699194936014832e-05,2.335206736237593734e-05,9.149746916219074076e-05,2.858107469879234510e-04,5.823525075381111044e-04,8.332851519289877435e-04,9.388194032371249224e-04,8.575750812195498179e-04,7.485560900070724810e-04,6.603495999100758964e-04,4.532451277199080696e-04,2.310013306385352340e-04,3.278655534193417043e-04,7.420880726096734962e-04,1.082464240111693111e-03,9.824027809823216231e-04,6.980383215015479323e-04,5.011115495034573243e-04,2.663957721067582488e-04,1.018280311463592427e-04,3.981985087347669712e-05,-4.477777170548344265e-06,-4.281230340569438364e-05,-1.753929616453136494e-05,7.943085249328871958e-06,9.632706019410711910e-06,9.969336731233636184e-06,9.946889799072763895e-06,7.912598612573860482e-06,2.188489068354490526e-06,2.506821294974079917e-05,1.910461179530206690e-04,4.481258022695032818e-04,6.653617839439180835e-04,7.395906874325308602e-04,6.034496366164999017e-04,4.428697720398808960e-04,3.899818090913777908e-04,3.754214206653741937e-04,4.009942779978779761e-04,6.886233167780556877e-04,1.061223327121128823e-03,1.096633820178626257e-03,8.453287234777179552e-04,5.518656999608438597e-04,2.903995285727210157e-04,1.267837430908263618e-04,4.202431962006621675e-07,-7.018153595618544947e-05,-7.508031113658965674e-05,-5.769062281872459766e-05,-2.965523223804189732e-05,5.528028993447034009e-07,9.480854054165981743e-06,1.000000000000000082e-05,9.954068794274596437e-06,8.677957683447279651e-06,-2.706049831264735611e-05,-3.861716881089610190e-05,2.593408755466728151e-05,1.727618363561575694e-04,3.318573515203096231e-04,3.686451054061885163e-04,2.590177965627398176e-04,1.208497768692879152e-04,1.093853928745236145e-04,2.236061838898879904e-04,4.653565271071833623e-04,7.883635234478366576e-04,9.275863176575017488e-04,7.775280931481670091e-04,4.237040134462422827e-04,1.589881087182196920e-04,-6.109878961353759034e-05,-1.491314894272778319e-04,-1.787531077274530443e-04,-1.959933206646733816e-04,-1.317340142088580445e-04,-8.080125070409100601e-05,-3.360492017392462469e-05,2.096834019165270353e-06,8.732266754134042664e-06,9.758519532499219148e-06,9.978741946607523551e-06,8.239279710172980564e-06,-3.542983015740735087e-05,-9.741111830460766666e-05,-1.255015066952935008e-04,-1.364079678590615966e-04,-1.021672080677398084e-04,-1.160530435097743238e-04,-2.131395555065163496e-04,-3.492369844039697993e-04,-3.001544808138921321e-04,-4.608731292263740849e-05,2.399863418826889909e-04,4.530370065616987139e-04,4.767816573677757341e-04,2.889363447205573832e-04,-3.178161798324805661e-05,-2.244968232693119890e-04,-3.070167097036256908e-04,-3.072793117060795506e-04,-2.946822948027685092e-04,-2.624992051040160417e-04,-1.557134392695386086e-04,-7.539937043987162248e-05,-2.425998810578142704e-05,7.972168218632436513e-06,9.863310428087549537e-06,9.999227292625396845e-06,9.608585669788577722e-06,6.421012057476171456e-06,-2.810510234554540536e-05,-1.108106057151699340e-04,-2.108365545770959145e-04,-3.484846500710907951e-04,-4.683370342181527105e-04,-5.739441760109287652e-04,-6.680447436221842450e-04,-7.235432370822729702e-04,-6.301287303365433936e-04,-4.081062255582347813e-04,-1.058329637277212416e-04,6.570509532326160838e-05,6.720555575488074585e-05,-4.796189076471372330e-05,-1.818581244448822616e-04,-2.957122940880491644e-04,-3.428743577526736333e-04,-3.263355988267764400e-04,-2.735363797704494135e-04,-2.366205268775748479e-04,-1.303327510319818967e-04,-5.577867345006573329e-05,-1.197334148300892351e-05,8.376039896448563899e-06,9.973196976188436572e-06,1.000000000000000082e-05,9.820592298681671210e-06,7.209911058159177269e-06,-2.447737186291760122e-05,-1.011993683705070897e-04,-2.231527981019813746e-04,-3.962781163972239071e-04,-5.786517857579738912e-04,-7.300582352322989264e-04,-8.113791032706651161e-04,-8.120314812323216292e-04,-6.725499335826796293e-04,-4.830328789002065666e-04,-3.342309131864235365e-04,-2.123439503054803674e-04,-1.603345500457365380e-04,-1.431512603369953683e-04,-1.555560035778630215e-04,-2.202036953767268549e-04,-2.509805112205080232e-04,-2.261274835400198854e-04,-1.831264826308803373e-04,-1.444061857579130657e-04,-7.995071034939636170e-05,-3.064984151948491151e-05,-3.502371876294936201e-06,8.805164152993491270e-06,9.985428566202987852e-06,9.998213994603070506e-06,9.943724388038102224e-06,7.732520245474261940e-06,-1.445704821879802111e-05,-6.403303216537680907e-05,-1.607930703418437087e-04,-3.331583211203395858e-04,-5.023126602520071315e-04,-6.148469215707367706e-04,-6.756897414512937419e-04,-6.519972369603878066e-04,-5.243632865817130255e-04,-4.126391550785788484e-04,-3.602803471966439797e-04,-2.892408783577244606e-04,-1.847516682513811041e-04,-1.308474048697947701e-04,-6.107462318649392325e-05,-6.437293718975864595e-05,-5.930214473026899772e-05,-6.844529322306477914e-05,-6.340918997000228273e-05,-5.303525827392083491e-05,-2.911860602448901924e-05,-1.161133354852103733e-05,4.612325373259923289e-07,9.122083214417285455e-06,9.998189379270220405e-06,9.998269807271727226e-06,9.996272335739595741e-06,8.577176281296594994e-06,-4.275909246867570832e-06,-3.215310902161964198e-05,-9.998968428865593868e-05,-2.133365029055169046e-04,-3.391254187905045161e-04,-4.311255813703273980e-04,-4.725086755479488624e-04,-4.316177713613696056e-04,-3.572833921073557137e-04,-3.082247260538817932e-04,-2.677332965278607303e-04,-2.190910079064217536e-04,-7.939508100745628488e-05,-8.335536460163628744e-06,9.699633699158884039e-05,1.310220416417755382e-04,1.418281625294545874e-04,8.242536026980073842e-05,5.270202501564371560e-05,6.939885343433354042e-06,-3.103755034614469443e-06,3.132773956570671366e-06,6.746027672944275595e-06,1.005325148462729538e-05,9.996657315575793300e-06,1.000000000000000082e-05,1.000000000000000082e-05,9.487499973919691449e-06,4.999565059227028491e-06,-1.122227387729261865e-05,-4.964725146723695414e-05,-1.106561881256784118e-04,-1.806900534526798701e-04,-2.339780653208834696e-04,-2.536711379880821331e-04,-2.434860020383902419e-04,-2.157530882519652306e-04,-2.268690039537912730e-04,-2.121669776022797418e-04,-1.262678935115793977e-04,1.788724834772883688e-06,8.541309770882908202e-05,1.975892942269434768e-04,2.521602719740876448e-04,2.189237506891893495e-04,1.604939160876173816e-04,8.468901022376973571e-05,1.992283953510966791e-05,6.675483591570028776e-06,6.003265179322855691e-06,9.628808391200655839e-06,1.017638037149777473e-05,1.000000000000000082e-05,1.000000000000000082e-05,1.000000000000000082e-05,9.866290452820745675e-06,8.565977252162371858e-06,4.234088083875611110e-07,-1.602130031018351465e-05,-4.369553740209222861e-05,-8.394196840935502747e-05,-1.130830239948742583e-04,-1.358810249068369508e-04,-1.533684309996416831e-04,-1.441658963459180613e-04,-1.964168519888138747e-04,-2.079366460658697575e-04,-1.353899826698789816e-04,-6.920857470506730025e-05,-1.665775316710883276e-05,2.048427546016082449e-05,7.850728592597843586e-05,8.304909072502305884e-05,5.036499145144208447e-05,1.834279048832497622e-05,5.614606132182305425e-06,3.607033883690449302e-06,4.865377656188720088e-06,1.019258526196303352e-05,9.925338186831975137e-06,1.000000000000000082e-05,1.000000000000000082e-05,1.000000000000000082e-05,9.951949828705691390e-06,9.744104643647192064e-06,6.791942463263609905e-06,-5.279956246537334991e-06,-2.912229308772126449e-05,-7.270196482192780316e-05,-1.283288386636248295e-04,-1.734315382050153720e-04,-2.222014212777035540e-04,-2.992425073317624487e-04,-3.523434327141711057e-04,-3.385786954667487753e-04,-3.024211497778405582e-04,-2.915337471937918807e-04,-3.041514889940372742e-04,-2.901251911552810213e-04,-2.149306404296158100e-04,-1.476705072101543842e-04,-8.980846141337768486e-05,-5.086702808782834074e-05,-1.468031862731073382e-05,2.289156626854728276e-06,5.777332301247496152e-06,9.660560839466690824e-06,9.922279604727828286e-06,1.000000000000000082e-05,1.000000000000000082e-05,1.000000000000000082e-05,1.000000000000000082e-05,9.977190727568944285e-06,8.716623461374858650e-06,6.024638408428975895e-06,-6.649103919842109916e-06,-2.581983214570588309e-05,-5.715921524954201935e-05,-9.228660383610345062e-05,-1.171072770638619133e-04,-1.521217013330751814e-04,-1.775117159530833740e-04,-1.939115053901544568e-04,-2.050697306978217457e-04,-1.806959645359530644e-04,-1.718251354232156532e-04,-1.437585778580907387e-04,-1.092441242532143659e-04,-7.212327597077173441e-05,-3.585893470018753048e-05,-1.273135790124191965e-05,1.619393722110415614e-06,8.839373496255263559e-06,9.805131933829978836e-06,9.991400434423595512e-06,1.000000000000000082e-05,1.000000000000000082e-05,1.000000000000000082e-05,1.000000000000000082e-05,1.000000000000000082e-05,1.000000000000000082e-05,9.973707031950853453e-06,9.825773331488261070e-06,9.057842992371488333e-06,5.777066610645484772e-06,4.967473247629807454e-06,5.323902249798957024e-06,1.153070245679585098e-06,1.055307825488814445e-06,-2.469568858587897978e-06,-4.772625659602721392e-06,-1.323097060759242060e-05,-6.458761637775106683e-06,-5.884939917626452899e-06,-4.147677523280876127e-06,-2.161715294636652184e-06,2.840389551940172529e-06,7.033140689105297369e-06,7.913042916781873792e-06,8.440371697044739263e-06,9.852540988402653347e-06,1.000000000000000082e-05,1.000000000000000082e-05,1.000000000000000082e-05,1.000000000000000082e-05,1.110730750064781762e-05
